{"learner":{"attributes":{"best_iteration":"199","best_ntree_limit":"200","scikit_learn":"{\"use_label_encoder\": null, \"n_estimators\": 200, \"objective\": \"multi:softmax\", \"max_leaves\": null, \"max_bin\": null, \"grow_policy\": null, \"learning_rate\": null, \"verbosity\": null, \"booster\": null, \"tree_method\": \"gpu_hist\", \"gamma\": 0.0, \"min_child_weight\": null, \"max_delta_step\": null, \"subsample\": null, \"sampling_method\": null, \"colsample_bytree\": null, \"colsample_bylevel\": null, \"colsample_bynode\": null, \"reg_alpha\": null, \"reg_lambda\": 0.1, \"scale_pos_weight\": null, \"base_score\": null, \"missing\": NaN, \"num_parallel_tree\": null, \"random_state\": null, \"n_jobs\": null, \"monotone_constraints\": null, \"interaction_constraints\": null, \"importance_type\": null, \"gpu_id\": null, \"validate_parameters\": null, \"predictor\": null, \"enable_categorical\": false, \"feature_types\": null, \"max_cat_to_onehot\": null, \"max_cat_threshold\": null, \"eval_metric\": [\"merror\", \"mlogloss\"], \"early_stopping_rounds\": null, \"callbacks\": null, \"kwargs\": {\"eta\": 0.5}, \"classes_\": [0, 1, 2, 3, 4], \"n_classes_\": 5, \"evals_result_\": {\"validation_0\": {\"merror\": [0.358225, 0.2785416666666667, 0.255625, 0.257625, 0.23116666666666666, 0.21031666666666668, 0.19135, 0.16421666666666668, 0.155075, 0.14574166666666666, 0.133525, 0.12276666666666666, 0.11751666666666667, 0.110875, 0.103575, 0.098375, 0.09491666666666666, 0.08723333333333333, 0.08479166666666667, 0.07945833333333334, 0.076125, 0.07100833333333334, 0.06678333333333333, 0.0624, 0.059075, 0.05644166666666667, 0.0535, 0.05173333333333333, 0.05030833333333333, 0.0491, 0.04766666666666667, 0.04586666666666667, 0.04428333333333333, 0.0437, 0.04274166666666666, 0.04208333333333333, 0.04085833333333334, 0.03994166666666667, 0.03853333333333334, 0.03834166666666667, 0.037275, 0.036225, 0.03461666666666666, 0.033475, 0.03256666666666667, 0.03163333333333333, 0.03088333333333333, 0.03026666666666667, 0.0297, 0.02879166666666667, 0.0279, 0.027275, 0.0269, 0.02593333333333333, 0.02545833333333333, 0.02471666666666667, 0.02409166666666667, 0.02371666666666667, 0.022925, 0.02231666666666667, 0.02215833333333333, 0.02173333333333333, 0.02113333333333333, 0.02089166666666667, 0.020325, 0.01995, 0.01956666666666667, 0.01941666666666667, 0.018975, 0.01829166666666667, 0.01788333333333333, 0.01746666666666667, 0.01714166666666667, 0.0169, 0.016675, 0.016175, 0.016075, 0.01565, 0.01536666666666667, 0.01509166666666667, 0.01486666666666667, 0.01469166666666667, 0.01425, 0.01384166666666667, 0.0137, 0.013575, 0.013225, 0.01313333333333333, 0.01279166666666667, 0.01245, 0.01210833333333333, 0.01189166666666667, 0.01163333333333333, 0.01159166666666667, 0.01146666666666667, 0.011225, 0.01100833333333333, 0.01083333333333333, 0.010525, 0.01035833333333333, 0.0101, 0.00998333333333333, 0.00981666666666667, 0.00955, 0.0093, 0.00925, 0.00900833333333333, 0.00894166666666667, 0.0088, 0.00856666666666667, 0.008475, 0.008275, 0.00825, 0.00811666666666667, 0.00800833333333333, 0.00793333333333333, 0.00770833333333333, 0.00760833333333333, 0.00759166666666667, 0.00724166666666667, 0.0071, 0.00711666666666667, 0.00693333333333333, 0.00691666666666667, 0.006825, 0.00665833333333333, 0.006575, 0.00646666666666667, 0.00640833333333333, 0.00628333333333333, 0.006275, 0.00605, 0.00595, 0.00583333333333333, 0.0057, 0.005625, 0.005625, 0.00551666666666667, 0.00546666666666667, 0.005375, 0.00524166666666667, 0.00516666666666667, 0.00505833333333333, 0.005, 0.00485, 0.00484166666666667, 0.004775, 0.0047, 0.00465833333333333, 0.0046, 0.00455833333333333, 0.00449166666666667, 0.00440833333333333, 0.00444166666666667, 0.00440833333333333, 0.0043, 0.00429166666666667, 0.00424166666666667, 0.00414166666666667, 0.0041, 0.0041, 0.00394166666666667, 0.003875, 0.00381666666666667, 0.00375, 0.00371666666666667, 0.00366666666666667, 0.00368333333333333, 0.00363333333333333, 0.00356666666666667, 0.00344166666666667, 0.00339166666666667, 0.0033, 0.00333333333333333, 0.00329166666666667, 0.00328333333333333, 0.00325, 0.00319166666666667, 0.00305833333333333, 0.003075, 0.00303333333333333, 0.00300833333333333, 0.00291666666666667, 0.00290833333333333, 0.00279166666666667, 0.00283333333333333, 0.002775, 0.00271666666666667, 0.00275, 0.00270833333333333, 0.00265, 0.00258333333333333, 0.00261666666666667, 0.00253333333333333, 0.00254166666666667, 0.00254166666666667, 0.00249166666666667, 0.00250833333333333, 0.002475, 0.00245], \"mlogloss\": [1.2173426358501116, 1.021691050326576, 0.9043289373410245, 0.8335610818353792, 0.7459719822108746, 0.6740602187441972, 0.6202661678423174, 0.5635199276585132, 0.5305992736103013, 0.5064427752641417, 0.4738481218777287, 0.4457195435973001, 0.4210913833903304, 0.399566860114265, 0.3810528373261516, 0.3651944947958468, 0.35031660598049735, 0.3340370972698385, 0.3211666282017982, 0.30847986164469815, 0.2958782207504526, 0.2832639729664285, 0.27270097554826084, 0.2605315162295352, 0.25164085787383156, 0.24312482196931195, 0.23395995193323416, 0.22676144674342552, 0.22039215686307811, 0.21544394583265336, 0.20989103957893943, 0.2033860234043514, 0.19684462870684288, 0.19194753353108943, 0.1879325858041547, 0.1836979084611199, 0.1793051408838782, 0.17401219035038115, 0.1690739058202189, 0.16662993665819073, 0.16155552662416872, 0.15688529800432194, 0.1526653833108654, 0.1480312227642813, 0.1454019912012131, 0.1425556693753937, 0.1390085514141771, 0.13626877611400814, 0.13366312497530536, 0.13059155442656123, 0.1274948140846919, 0.12458291735410285, 0.12240636818116196, 0.1195360153696099, 0.11691618494919118, 0.11448155182138735, 0.11226326830860223, 0.10952553449574039, 0.10694323371886193, 0.10476856458142673, 0.10250315277033605, 0.1006288772760934, 0.09835590354969297, 0.09663340607336941, 0.09510311588795349, 0.09323222273364758, 0.09178253968512826, 0.09029052358874451, 0.08865658363367754, 0.08693714482591128, 0.08510129622885909, 0.08330917072886865, 0.08147750972643941, 0.07965374094934848, 0.07868976493230356, 0.07722147752212301, 0.07604533675617135, 0.07443414442346981, 0.07324830104832625, 0.071707400756538, 0.07037674445566125, 0.06883399412297304, 0.06742421928280264, 0.066336388970343, 0.06532330537409534, 0.06401701968176715, 0.06291432295574713, 0.06200385762623411, 0.0608240565020015, 0.05974667885993389, 0.05843283706775442, 0.05738077247441554, 0.05632261907821683, 0.05559960013076248, 0.05460403122698559, 0.05376249664172695, 0.05270224720471771, 0.05179667114314357, 0.05080002254700341, 0.04973328412658652, 0.04886257637582078, 0.0481402880195269, 0.04736315379860197, 0.04650799822991989, 0.04576522202808549, 0.04534049928003767, 0.04457551100717545, 0.04382423229588223, 0.0430844731542039, 0.04221988302797912, 0.04159323695141331, 0.04092200946480239, 0.04050214184609591, 0.03991251876388437, 0.03937486058472638, 0.03876911683887156, 0.03817767704996759, 0.03754031489050073, 0.03686894123825212, 0.03617469038687371, 0.03559335996365749, 0.03510920934450867, 0.03462518963537937, 0.03412056345448613, 0.03363971538975002, 0.03321081406477048, 0.03267615232391045, 0.03213295350470691, 0.03171661120991248, 0.03124510668480633, 0.03076239690586954, 0.03028561241467792, 0.02988961394271985, 0.02945849421057867, 0.02893481517596335, 0.02855394050651662, 0.02816745203336807, 0.02787397068840383, 0.02747692932471939, 0.02701287549105793, 0.02649114110424769, 0.02623408827929076, 0.0257985197705827, 0.02544272478632177, 0.02502250299270081, 0.0247091167467567, 0.024394100640621, 0.02402459886363704, 0.02372380778550413, 0.02348500281072459, 0.02320950184258785, 0.02287765561317894, 0.0225885134562191, 0.02226841857210608, 0.02201214640276442, 0.02174660439185411, 0.02148258404633171, 0.02120569498991304, 0.02085933245540092, 0.02066106451632004, 0.02036579914122437, 0.02004079954260348, 0.01974564728031787, 0.01948793698947087, 0.01921085539751332, 0.01901261436235523, 0.01877230033278097, 0.0184971151431865, 0.01830607386247192, 0.01803567044937726, 0.01780114507838297, 0.01759390601575654, 0.01733917381792923, 0.01709563187898765, 0.01684878804241091, 0.01666777913198572, 0.01646036155891126, 0.0162353408127402, 0.01601777543980043, 0.01580275437997812, 0.01558954958929298, 0.01536364616739926, 0.01516882604056399, 0.01495266450227328, 0.01472262846864465, 0.01452919473191396, 0.01438881801944736, 0.01420294179537105, 0.01402479171591472, 0.01387816725183302, 0.01371438072941575, 0.01353686412547283, 0.01337516730563439, 0.01322320294225532, 0.01309082114819151, 0.01296287949934673, 0.01276607832843681, 0.01262097139775579, 0.01244903904527292, 0.01232659918584494]}, \"validation_1\": {\"merror\": [0.3593979207857644, 0.273295490783851, 0.2523120096944958, 0.24893169207219848, 0.22622616238280502, 0.20498756298233306, 0.1861725875374705, 0.16346705784807705, 0.15294342751450984, 0.14280247464761783, 0.13062057529179158, 0.12054340200267874, 0.11607883155813509, 0.1106575674469035, 0.10115441035780343, 0.09758275400216851, 0.09401109764653358, 0.0860386504241342, 0.08412526309075834, 0.07889533771286435, 0.07602525671280057, 0.07022131513489381, 0.06607564257924613, 0.06059059889023535, 0.05676382422348364, 0.05440397984565342, 0.05185279673448562, 0.04968429108999298, 0.04885515657886345, 0.04783468333439633, 0.0455386185343453, 0.04362523120096945, 0.04247719880094394, 0.04196696217871038, 0.04062759104534728, 0.04056381146756809, 0.03922444033420499, 0.03852286497863384, 0.03762995088972511, 0.03737483257860833, 0.03603546144524523, 0.0352063269341157, 0.0338669558007526, 0.0325913642451687, 0.03220868677849353, 0.03137955226736399, 0.03112443395624721, 0.03086931564513043, 0.03023151986733848, 0.02908348746731297, 0.0287008100006378, 0.02806301422284584, 0.02742521844505389, 0.02678742266726194, 0.0260220677339116, 0.02563939026723643, 0.02525671280056126, 0.02442757828943172, 0.02385356208941897, 0.02276930926717265, 0.02289686842273104, 0.02245041137827668, 0.02225907264493909, 0.02174883602270553, 0.02136615855603036, 0.02111104024491358, 0.0208559219337968, 0.02091970151157599, 0.02015434657822565, 0.01964410995599209, 0.01958033037821289, 0.01881497544486255, 0.01836851840040819, 0.01830473882262899, 0.01817717966707061, 0.01804962051151221, 0.01792206135595382, 0.01734804515594107, 0.01715670642260348, 0.01722048600038268, 0.01671024937814912, 0.01671024937814912, 0.01645513106703234, 0.01613623317813636, 0.01588111486701958, 0.01600867402257797, 0.01575355571146119, 0.015689776133682, 0.01492442120033165, 0.01473308246699407, 0.01447796415587729, 0.01415906626698131, 0.01377638880030614, 0.01364882964474775, 0.01358505006696856, 0.01352127048918936, 0.01313859302251419, 0.01288347471139741, 0.01262835640028063, 0.01243701766694304, 0.01192678104470948, 0.01186300146693029, 0.01192678104470948, 0.0117354423113719, 0.01128898526691753, 0.01141654442247592, 0.0116716627335927, 0.01160788315581351, 0.01160788315581351, 0.01135276484469673, 0.01084252822246317, 0.01077874864468397, 0.01065118948912558, 0.01058740991134639, 0.01026851202245041, 0.01014095286689202, 0.00994961413355444, 0.00982205497799605, 0.00963071624465846, 0.00943937751132088, 0.00931181835576248, 0.00918425920020409, 0.00892914088908731, 0.00880158173352892, 0.00880158173352892, 0.00861024300019134, 0.00848268384463295, 0.00854646342241214, 0.00848268384463295, 0.00835512468907456, 0.00829134511129536, 0.00835512468907456, 0.00841890426685375, 0.00829134511129536, 0.00810000637795778, 0.00816378595573697, 0.00803622680017858, 0.00797244722239939, 0.00797244722239939, 0.00816378595573697, 0.00810000637795778, 0.00790866764462019, 0.00810000637795778, 0.00810000637795778, 0.00803622680017858, 0.0077811084890618, 0.00771732891128261, 0.00771732891128261, 0.0077811084890618, 0.00758976975572422, 0.00752599017794502, 0.00746221060016583, 0.00739843102238663, 0.00733465144460744, 0.00733465144460744, 0.00727087186682824, 0.00727087186682824, 0.00720709228904905, 0.00720709228904905, 0.00720709228904905, 0.00714331271126985, 0.00707953313349066, 0.00701575355571146, 0.00701575355571146, 0.00688819440015307, 0.00676063524459468, 0.00663307608903629, 0.0065692965112571, 0.00676063524459468, 0.00663307608903629, 0.0065692965112571, 0.0065692965112571, 0.0065055169334779, 0.00644173735569871, 0.00637795777791951, 0.00644173735569871, 0.00625039862236112, 0.00612283946680273, 0.00593150073346514, 0.00574016200012756, 0.00574016200012756, 0.00574016200012756, 0.00580394157790675, 0.00567638242234836, 0.00574016200012756, 0.00580394157790675, 0.00586772115568595, 0.00567638242234836, 0.00567638242234836, 0.00554882326678997, 0.00554882326678997, 0.00548504368901078, 0.00554882326678997, 0.00561260284456917, 0.00561260284456917, 0.00567638242234836, 0.00554882326678997, 0.00567638242234836, 0.00554882326678997, 0.00542126411123158], \"mlogloss\": [1.214979531684543, 1.0175994655270761, 0.8998087985310766, 0.8285138708726356, 0.7420010421506125, 0.6694432681891979, 0.6152287482073914, 0.559318745376567, 0.5259609879563867, 0.5003228288443127, 0.4683888556597389, 0.44120267227872273, 0.416960156338672, 0.3951257688010395, 0.3761785640980022, 0.36061321874879754, 0.34574380453601555, 0.3299986260135328, 0.31773024231026575, 0.30447027887207395, 0.2921810262828835, 0.2794141396671565, 0.2691211203441959, 0.25714188001669425, 0.24836147367364106, 0.23968497147814008, 0.23101810964532773, 0.22374336231611028, 0.2172966323989668, 0.21255471203753912, 0.20727218817393306, 0.2005802133223398, 0.1943853738970443, 0.18949411641147082, 0.18544919952169478, 0.1811492878347662, 0.17708323417330676, 0.1716490695656566, 0.1670856629324156, 0.16492333600210526, 0.16009928358212763, 0.15545929222815322, 0.15145646553302494, 0.14708634732481496, 0.14462081102940338, 0.1417530860348956, 0.13851397388921224, 0.13601662457379737, 0.13353696268644913, 0.13043415868110658, 0.12744674922409585, 0.12475208719883812, 0.1227820243920068, 0.12031144023697654, 0.11772735555079256, 0.11550558494324364, 0.11335370974534205, 0.11049163522766958, 0.10795164146039914, 0.10584139513047146, 0.10345626363637386, 0.10157456254078745, 0.09951873878539928, 0.09800061969693734, 0.09656175405507618, 0.09466753730092406, 0.09341224495600145, 0.09206513470071645, 0.09036971799105396, 0.08892217768027716, 0.08707654870549218, 0.08549111539225121, 0.08382521109151979, 0.08213985229591604, 0.08111622209178469, 0.07987227962350521, 0.07867806704420095, 0.0772304476752664, 0.07612313450329321, 0.07463983403010609, 0.07345513314400351, 0.07196671112067925, 0.07066723485511486, 0.06956263823992107, 0.06857513147404085, 0.06742639235196159, 0.06639206965943097, 0.06568713424215777, 0.06454500237762097, 0.06359497708994546, 0.0622602157565576, 0.06127468127532516, 0.06023464292581283, 0.05957807686182186, 0.05882134996357778, 0.05803754495735284, 0.05707559216307073, 0.05639388411755519, 0.05542364680558474, 0.05440756778573956, 0.05355636619713919, 0.05290176462701473, 0.05221024564121975, 0.05150911882066805, 0.05082412364343317, 0.05038649991147748, 0.0497524849804123, 0.0491865881150994, 0.04851334109925763, 0.04759208936773379, 0.04686841267772756, 0.04629857308960575, 0.04581928973729181, 0.04535167718178438, 0.04497669443613462, 0.04441588434335744, 0.04387121191273555, 0.04336241664083578, 0.0427985974447356, 0.04211899550726873, 0.04153273460511338, 0.04110883047379835, 0.04054622560030945, 0.04011624316884155, 0.03967926932472427, 0.03937751122296684, 0.03897748810233488, 0.03846484665744809, 0.03811916421817391, 0.03770081790831723, 0.0372205327448249, 0.03692736518972083, 0.03653926703718258, 0.03614169764119472, 0.03564441102313777, 0.03539484903545396, 0.03511542917491132, 0.03482623501837617, 0.03435614332151723, 0.0340028510041328, 0.03361786518917159, 0.03346900934936804, 0.03316497270272258, 0.03285053041849475, 0.03250046285826608, 0.03223502811865447, 0.03189956836547954, 0.03154144593319307, 0.03140770956823595, 0.03113078980493877, 0.03088764598924419, 0.03053669463094047, 0.0302900498221616, 0.02997608155227285, 0.02978731924605389, 0.02955256658262045, 0.02940165330554594, 0.02915345857087216, 0.02884937626736591, 0.02868824901123368, 0.02833409578696711, 0.02797732106149838, 0.027740370129952, 0.02744876801518294, 0.02722755156765113, 0.02708211545251869, 0.02678671431579832, 0.02647514892593061, 0.02632512702631767, 0.02612408538503777, 0.02593769188531896, 0.02575329350892417, 0.02554235499705189, 0.02529166392111047, 0.02513818629729068, 0.02497283602598862, 0.02480962009282464, 0.02463996170346313, 0.02447854442688004, 0.02424225646850565, 0.02411258196271931, 0.02388693731322721, 0.02378448204855154, 0.02363952589871013, 0.0235389047386995, 0.02344423327905738, 0.02332524376282848, 0.02311969617011833, 0.02298364254491937, 0.02283084325194831, 0.02269311024749243, 0.02258212882340619, 0.02241816844812707, 0.02229873241015546, 0.02222503279426252, 0.0221652574724726, 0.02202120325470064, 0.02192034497987853, 0.02179168976327957, 0.02165136838684316]}}, \"_estimator_type\": \"classifier\"}"},"feature_names":[],"feature_types":[],"gradient_booster":{"model":{"gbtree_model_param":{"num_parallel_tree":"1","num_trees":"1000","size_leaf_vector":"0"},"tree_info":[0,1,2,3,4,0,1,2,3,4,0,1,2,3,4,0,1,2,3,4,0,1,2,3,4,0,1,2,3,4,0,1,2,3,4,0,1,2,3,4,0,1,2,3,4,0,1,2,3,4,0,1,2,3,4,0,1,2,3,4,0,1,2,3,4,0,1,2,3,4,0,1,2,3,4,0,1,2,3,4,0,1,2,3,4,0,1,2,3,4,0,1,2,3,4,0,1,2,3,4,0,1,2,3,4,0,1,2,3,4,0,1,2,3,4,0,1,2,3,4,0,1,2,3,4,0,1,2,3,4,0,1,2,3,4,0,1,2,3,4,0,1,2,3,4,0,1,2,3,4,0,1,2,3,4,0,1,2,3,4,0,1,2,3,4,0,1,2,3,4,0,1,2,3,4,0,1,2,3,4,0,1,2,3,4,0,1,2,3,4,0,1,2,3,4,0,1,2,3,4,0,1,2,3,4,0,1,2,3,4,0,1,2,3,4,0,1,2,3,4,0,1,2,3,4,0,1,2,3,4,0,1,2,3,4,0,1,2,3,4,0,1,2,3,4,0,1,2,3,4,0,1,2,3,4,0,1,2,3,4,0,1,2,3,4,0,1,2,3,4,0,1,2,3,4,0,1,2,3,4,0,1,2,3,4,0,1,2,3,4,0,1,2,3,4,0,1,2,3,4,0,1,2,3,4,0,1,2,3,4,0,1,2,3,4,0,1,2,3,4,0,1,2,3,4,0,1,2,3,4,0,1,2,3,4,0,1,2,3,4,0,1,2,3,4,0,1,2,3,4,0,1,2,3,4,0,1,2,3,4,0,1,2,3,4,0,1,2,3,4,0,1,2,3,4,0,1,2,3,4,0,1,2,3,4,0,1,2,3,4,0,1,2,3,4,0,1,2,3,4,0,1,2,3,4,0,1,2,3,4,0,1,2,3,4,0,1,2,3,4,0,1,2,3,4,0,1,2,3,4,0,1,2,3,4,0,1,2,3,4,0,1,2,3,4,0,1,2,3,4,0,1,2,3,4,0,1,2,3,4,0,1,2,3,4,0,1,2,3,4,0,1,2,3,4,0,1,2,3,4,0,1,2,3,4,0,1,2,3,4,0,1,2,3,4,0,1,2,3,4,0,1,2,3,4,0,1,2,3,4,0,1,2,3,4,0,1,2,3,4,0,1,2,3,4,0,1,2,3,4,0,1,2,3,4,0,1,2,3,4,0,1,2,3,4,0,1,2,3,4,0,1,2,3,4,0,1,2,3,4,0,1,2,3,4,0,1,2,3,4,0,1,2,3,4,0,1,2,3,4,0,1,2,3,4,0,1,2,3,4,0,1,2,3,4,0,1,2,3,4,0,1,2,3,4,0,1,2,3,4,0,1,2,3,4,0,1,2,3,4,0,1,2,3,4,0,1,2,3,4,0,1,2,3,4,0,1,2,3,4,0,1,2,3,4,0,1,2,3,4,0,1,2,3,4,0,1,2,3,4,0,1,2,3,4,0,1,2,3,4,0,1,2,3,4,0,1,2,3,4,0,1,2,3,4,0,1,2,3,4,0,1,2,3,4,0,1,2,3,4,0,1,2,3,4,0,1,2,3,4,0,1,2,3,4,0,1,2,3,4,0,1,2,3,4,0,1,2,3,4,0,1,2,3,4,0,1,2,3,4,0,1,2,3,4,0,1,2,3,4,0,1,2,3,4,0,1,2,3,4,0,1,2,3,4,0,1,2,3,4,0,1,2,3,4,0,1,2,3,4,0,1,2,3,4,0,1,2,3,4,0,1,2,3,4,0,1,2,3,4,0,1,2,3,4,0,1,2,3,4,0,1,2,3,4,0,1,2,3,4,0,1,2,3,4,0,1,2,3,4,0,1,2,3,4,0,1,2,3,4,0,1,2,3,4,0,1,2,3,4,0,1,2,3,4,0,1,2,3,4,0,1,2,3,4,0,1,2,3,4,0,1,2,3,4,0,1,2,3,4,0,1,2,3,4,0,1,2,3,4,0,1,2,3,4,0,1,2,3,4,0,1,2,3,4,0,1,2,3,4,0,1,2,3,4,0,1,2,3,4,0,1,2,3,4,0,1,2,3,4,0,1,2,3,4,0,1,2,3,4,0,1,2,3,4,0,1,2,3,4,0,1,2,3,4,0,1,2,3,4,0,1,2,3,4,0,1,2,3,4,0,1,2,3,4,0,1,2,3,4,0,1,2,3,4,0,1,2,3,4,0,1,2,3,4,0,1,2,3,4],"trees":[{"base_weights":[-4.1909403E-11,7.988844E-1,-3.8341072E-1,6.344714E-1,-5.840807E-2,-2.5700817E-1,7.972545E-2],"categories":[],"categories_nodes":[],"categories_segments":[],"categories_sizes":[],"default_left":[0,0,0,0,0,0,0],"id":0,"left_children":[1,3,5,-1,-1,-1,-1],"loss_changes":[1.1762014E4,5.3601675E3,1.8396892E3,0E0,0E0,0E0,0E0],"parents":[2147483647,0,0,1,1,2,2],"right_children":[2,4,6,-1,-1,-1,-1],"split_conditions":[4.5235395E0,-3.323989E0,-4.4928634E-1,6.344714E-1,-5.840807E-2,-2.5700817E-1,7.972545E-2],"split_indices":[55,165,53,0,0,0,0],"split_type":[0,0,0,0,0,0,0],"sum_hessian":[3.8400004E4,1.245284E4,2.5947162E4,8.22873E3,4.2241094E3,2.091523E4,5.0319326E3],"tree_param":{"num_deleted":"0","num_feature":"626","num_nodes":"7","size_leaf_vector":"0"}},{"base_weights":[-2.573936E-9,-4.0374345E-1,2.3144019E0,1.1226727E0,-2.612731E-1,1.2051246E0,-1.8258908E-1],"categories":[],"categories_nodes":[],"categories_segments":[],"categories_sizes":[],"default_left":[0,0,0,0,0,0,0],"id":1,"left_children":[1,3,5,-1,-1,-1,-1],"loss_changes":[3.588209E4,1.0290287E4,1.4650078E3,0E0,0E0,0E0,0E0],"parents":[2147483647,0,0,1,1,2,2],"right_children":[2,4,6,-1,-1,-1,-1],"split_conditions":[5.441031E0,-3.5004535E0,7.341353E0,1.1226727E0,-2.612731E-1,1.2051246E0,-1.8258908E-1],"split_indices":[252,352,557,0,0,0,0],"split_type":[0,0,0,0,0,0,0],"sum_hessian":[3.8400004E4,3.2696275E4,5.703727E3,1.4033042E3,3.129297E4,5.506762E3,1.9696451E2],"tree_param":{"num_deleted":"0","num_feature":"626","num_nodes":"7","size_leaf_vector":"0"}},{"base_weights":[1.11164695E-8,-5.693519E-1,2.38838E0,1.1772817E0,-2.9572153E-1,-3.1237838E-1,1.2484374E0],"categories":[],"categories_nodes":[],"categories_segments":[],"categories_sizes":[],"default_left":[0,0,0,0,0,0,0],"id":2,"left_children":[1,3,5,-1,-1,-1,-1],"loss_changes":[5.2217703E4,2.0030518E3,2.4166367E3,0E0,0E0,0E0,0E0],"parents":[2147483647,0,0,1,1,2,2],"right_children":[2,4,6,-1,-1,-1,-1],"split_conditions":[1.4592103E0,-5.4277E0,1.9703611E0,1.1772817E0,-2.9572153E-1,-3.1237838E-1,1.2484374E0],"split_indices":[130,131,558,0,0,0,0],"split_type":[0,0,0,0,0,0,0],"sum_hessian":[3.8400004E4,3.1008213E4,7.3917896E3,2.3244177E2,3.0775771E4,2.5689075E2,7.134899E3],"tree_param":{"num_deleted":"0","num_feature":"626","num_nodes":"7","size_leaf_vector":"0"}},{"base_weights":[-1.1048948E-8,1.403681E0,-3.39976E-1,1.1131405E0,1.3343725E-1,-1.9387463E-1,1.0573108E0],"categories":[],"categories_nodes":[],"categories_segments":[],"categories_sizes":[],"default_left":[0,0,0,0,0,0,0],"id":3,"left_children":[1,3,5,-1,-1,-1,-1],"loss_changes":[1.8325264E4,7.0015156E3,3.6250652E3,0E0,0E0,0E0,0E0],"parents":[2147483647,0,0,1,1,2,2],"right_children":[2,4,6,-1,-1,-1,-1],"split_conditions":[-4.107597E0,-1.0035633E0,9.871637E0,1.1131405E0,1.3343725E-1,-1.9387463E-1,1.0573108E0],"split_indices":[34,543,403,0,0,0,0],"split_type":[0,0,0,0,0,0,0],"sum_hessian":[3.8400004E4,7.487122E3,3.091288E4,4.343816E3,3.143306E3,3.0322799E4,5.900813E2],"tree_param":{"num_deleted":"0","num_feature":"626","num_nodes":"7","size_leaf_vector":"0"}},{"base_weights":[2.5483247E-9,-3.0742413E-1,1.0719144E0,4.2504862E-1,-2.2454599E-1,-1.4580212E-2,7.3494536E-1],"categories":[],"categories_nodes":[],"categories_segments":[],"categories_sizes":[],"default_left":[0,0,0,0,0,0,0],"id":4,"left_children":[1,3,5,-1,-1,-1,-1],"loss_changes":[1.2654108E4,4.893578E3,3.750379E3,0E0,0E0,0E0,0E0],"parents":[2147483647,0,0,1,1,2,2],"right_children":[2,4,6,-1,-1,-1,-1],"split_conditions":[1.6574442E0,1.3618676E-1,-6.206716E-1,4.2504862E-1,-2.2454599E-1,-1.4580212E-2,7.3494536E-1],"split_indices":[117,621,351,0,0,0,0],"split_type":[0,0,0,0,0,0,0],"sum_hessian":[3.8400004E4,2.9841545E4,8.558457E3,3.253965E3,2.658758E4,2.2721707E3,6.2862866E3],"tree_param":{"num_deleted":"0","num_feature":"626","num_nodes":"7","size_leaf_vector":"0"}},{"base_weights":[2.5776245E-2,-3.540082E-1,4.3787098E-1,-2.0198861E-1,2.0341693E-1,-1.3442153E-1,3.473443E-1],"categories":[],"categories_nodes":[],"categories_segments":[],"categories_sizes":[],"default_left":[0,0,0,0,0,0,0],"id":5,"left_children":[1,3,5,-1,-1,-1,-1],"loss_changes":[5.5512744E3,7.017822E2,3.0875059E3,0E0,0E0,0E0,0E0],"parents":[2147483647,0,0,1,1,2,2],"right_children":[2,4,6,-1,-1,-1,-1],"split_conditions":[-1.0843325E0,1.9615648E0,5.045096E-1,-2.0198861E-1,2.0341693E-1,-1.3442153E-1,3.473443E-1],"split_indices":[52,454,353,0,0,0,0],"split_type":[0,0,0,0,0,0,0],"sum_hessian":[3.546958E4,1.8458412E4,1.7011166E4,1.7320893E4,1.1375189E3,4.5341177E3,1.2477048E4],"tree_param":{"num_deleted":"0","num_feature":"626","num_nodes":"7","size_leaf_vector":"0"}},{"base_weights":[-2.1014644E-2,-3.5033002E-1,9.467704E-1,4.9865597E-1,-2.404783E-1,5.02756E-1,-1.2272675E-1],"categories":[],"categories_nodes":[],"categories_segments":[],"categories_sizes":[],"default_left":[0,0,0,0,0,0,0],"id":6,"left_children":[1,3,5,-1,-1,-1,-1],"loss_changes":[1.1030318E4,4.545829E3,6.153989E2,0E0,0E0,0E0,0E0],"parents":[2147483647,0,0,1,1,2,2],"right_children":[2,4,6,-1,-1,-1,-1],"split_conditions":[2.3474712E0,-2.7091312E0,6.7691064E0,4.9865597E-1,-2.404783E-1,5.02756E-1,-1.2272675E-1],"split_indices":[157,303,557,0,0,0,0],"split_type":[0,0,0,0,0,0,0],"sum_hessian":[3.4609438E4,2.5822643E4,8.786797E3,2.2817485E3,2.3540893E4,8.374211E3,4.125867E2],"tree_param":{"num_deleted":"0","num_feature":"626","num_nodes":"7","size_leaf_vector":"0"}},{"base_weights":[-3.9211527E-2,-5.785129E-1,8.7999773E-1,-2.9018036E-1,3.6095724E-1,4.912625E-1,-2.374423E-1],"categories":[],"categories_nodes":[],"categories_segments":[],"categories_sizes":[],"default_left":[0,0,0,0,0,0,0],"id":7,"left_children":[1,3,5,-1,-1,-1,-1],"loss_changes":[1.7060816E4,5.2160645E1,1.7677812E3,0E0,0E0,0E0,0E0],"parents":[2147483647,0,0,1,1,2,2],"right_children":[2,4,6,-1,-1,-1,-1],"split_conditions":[6.056161E0,3.1174579E0,2.3598379E-1,-2.9018036E-1,3.6095724E-1,4.912625E-1,-2.374423E-1],"split_indices":[301,130,300,0,0,0,0],"split_type":[0,0,0,0,0,0,0],"sum_hessian":[3.4415285E4,2.1689854E4,1.2725431E4,2.1659133E4,3.0720015E1,1.1830235E4,8.9519556E2],"tree_param":{"num_deleted":"0","num_feature":"626","num_nodes":"7","size_leaf_vector":"0"}},{"base_weights":[1.12654595E-2,6.688185E-1,-3.3876166E-1,-1.6008276E-1,5.064824E-1,-2.4732505E-1,8.816672E-2],"categories":[],"categories_nodes":[],"categories_segments":[],"categories_sizes":[],"default_left":[0,0,0,0,0,0,0],"id":8,"left_children":[1,3,5,-1,-1,-1,-1],"loss_changes":[8.0146914E3,4.1172983E3,1.8247732E3,0E0,0E0,0E0,0E0],"parents":[2147483647,0,0,1,1,2,2],"right_children":[2,4,6,-1,-1,-1,-1],"split_conditions":[-5.0420823E0,2.8461108E0,2.9334703E-1,-1.6008276E-1,5.064824E-1,-2.4732505E-1,8.816672E-2],"split_indices":[475,104,367,0,0,0,0],"split_type":[0,0,0,0,0,0,0],"sum_hessian":[3.482185E4,1.2096865E4,2.2724986E4,3.1227966E3,8.974068E3,1.7445334E4,5.2796533E3],"tree_param":{"num_deleted":"0","num_feature":"626","num_nodes":"7","size_leaf_vector":"0"}},{"base_weights":[2.1762334E-2,9.095151E-1,-1.6110064E-1,-3.1496444E-1,5.2197254E-1,7.635553E-2,-2.5190997E-1],"categories":[],"categories_nodes":[],"categories_segments":[],"categories_sizes":[],"default_left":[0,0,0,0,0,0,0],"id":9,"left_children":[1,3,5,-1,-1,-1,-1],"loss_changes":[5.745549E3,1.2510903E3,3.1563203E3,0E0,0E0,0E0,0E0],"parents":[2147483647,0,0,1,1,2,2],"right_children":[2,4,6,-1,-1,-1,-1],"split_conditions":[-1.8897904E0,-1.983054E0,1.7509727E-1,-3.1496444E-1,5.2197254E-1,7.635553E-2,-2.5190997E-1],"split_indices":[205,303,598,0,0,0,0],"split_type":[0,0,0,0,0,0,0],"sum_hessian":[3.539251E4,6.0450327E3,2.9347479E4,4.8545096E2,5.5595815E3,1.5319865E4,1.4027613E4],"tree_param":{"num_deleted":"0","num_feature":"626","num_nodes":"7","size_leaf_vector":"0"}},{"base_weights":[3.0264573E-2,2.8540418E-1,-3.8535163E-1,-8.068054E-2,2.5245088E-1,1.6725947E-1,-2.2148447E-1],"categories":[],"categories_nodes":[],"categories_segments":[],"categories_sizes":[],"default_left":[0,0,0,0,0,0,0],"id":10,"left_children":[1,3,5,-1,-1,-1,-1],"loss_changes":[3.4941816E3,2.0022297E3,5.198865E2,0E0,0E0,0E0,0E0],"parents":[2147483647,0,0,1,1,2,2],"right_children":[2,4,6,-1,-1,-1,-1],"split_conditions":[5.9772706E0,-1.4847748E0,1.5953307E-1,-8.068054E-2,2.5245088E-1,1.6725947E-1,-2.2148447E-1],"split_indices":[55,2,606,0,0,0,0],"split_type":[0,0,0,0,0,0,0],"sum_hessian":[3.2951293E4,2.041742E4,1.2533871E4,6.7264443E3,1.3690977E4,9.288122E2,1.160506E4],"tree_param":{"num_deleted":"0","num_feature":"626","num_nodes":"7","size_leaf_vector":"0"}},{"base_weights":[-2.052642E-2,-3.178391E-1,6.9369906E-1,4.0586352E-1,-2.2429846E-1,3.71768E-1,-2.8327316E-1],"categories":[],"categories_nodes":[],"categories_segments":[],"categories_sizes":[],"default_left":[0,0,0,0,0,0,0],"id":11,"left_children":[1,3,5,-1,-1,-1,-1],"loss_changes":[6.0509287E3,2.9717415E3,5.26072E2,0E0,0E0,0E0,0E0],"parents":[2147483647,0,0,1,1,2,2],"right_children":[2,4,6,-1,-1,-1,-1],"split_conditions":[1.9885578E0,-3.0792844E0,2.991708E0,4.0586352E-1,-2.2429846E-1,3.71768E-1,-2.8327316E-1],"split_indices":[157,401,110,0,0,0,0],"split_type":[0,0,0,0,0,0,0],"sum_hessian":[2.8495098E4,2.011982E4,8.375278E3,2.0873652E3,1.8032455E4,8.0567134E3,3.1856485E2],"tree_param":{"num_deleted":"0","num_feature":"626","num_nodes":"7","size_leaf_vector":"0"}},{"base_weights":[-5.591717E-2,-5.570944E-1,6.632332E-1,-2.7879566E-1,2.069448E-1,-2.866251E-1,3.7011856E-1],"categories":[],"categories_nodes":[],"categories_segments":[],"categories_sizes":[],"default_left":[0,0,0,0,0,0,0],"id":12,"left_children":[1,3,5,-1,-1,-1,-1],"loss_changes":[9.762109E3,7.7250977E0,1.0591709E3,0E0,0E0,0E0,0E0],"parents":[2147483647,0,0,1,1,2,2],"right_children":[2,4,6,-1,-1,-1,-1],"split_conditions":[4.9914303E0,2.9510148E0,1.8364197E0,-2.7879566E-1,2.069448E-1,-2.866251E-1,3.7011856E-1],"split_indices":[301,277,109,0,0,0,0],"split_type":[0,0,0,0,0,0,0],"sum_hessian":[2.7085033E4,1.5961475E4,1.1123558E4,1.5953352E4,8.122318E0,6.520864E2,1.0471472E4],"tree_param":{"num_deleted":"0","num_feature":"626","num_nodes":"7","size_leaf_vector":"0"}},{"base_weights":[8.766839E-3,3.543308E-1,-4.2956224E-1,3.6489865E-1,-1.260437E-1,9.371761E-2,-2.557102E-1],"categories":[],"categories_nodes":[],"categories_segments":[],"categories_sizes":[],"default_left":[0,0,0,0,0,0,0],"id":13,"left_children":[1,3,5,-1,-1,-1,-1],"loss_changes":[4.6213423E3,3.8844387E3,6.79302E2,0E0,0E0,0E0,0E0],"parents":[2147483647,0,0,1,1,2,2],"right_children":[2,4,6,-1,-1,-1,-1],"split_conditions":[-2.1209292E0,5.062393E-1,-5.9792643E0,3.6489865E-1,-1.260437E-1,9.371761E-2,-2.557102E-1],"split_indices":[349,351,350,0,0,0,0],"split_type":[0,0,0,0,0,0,0],"sum_hessian":[3.05096E4,1.7060049E4,1.3449552E4,1.0536382E4,6.523667E3,1.5753545E3,1.1874197E4],"tree_param":{"num_deleted":"0","num_feature":"626","num_nodes":"7","size_leaf_vector":"0"}},{"base_weights":[2.5594039E-2,-5.188418E-1,2.1907017E-1,-3.043904E-1,1.8832749E-1,-2.5359744E-1,2.1289095E-1],"categories":[],"categories_nodes":[],"categories_segments":[],"categories_sizes":[],"default_left":[0,0,0,0,0,0,0],"id":14,"left_children":[1,3,5,-1,-1,-1,-1],"loss_changes":[3.435295E3,6.8871484E2,3.6123916E3,0E0,0E0,0E0,0E0],"parents":[2147483647,0,0,1,1,2,2],"right_children":[2,4,6,-1,-1,-1,-1],"split_conditions":[-6.3009353E0,1.0978466E0,-5.932207E-1,-3.043904E-1,1.8832749E-1,-2.5359744E-1,2.1289095E-1],"split_indices":[350,356,362,0,0,0,0],"split_type":[0,0,0,0,0,0,0],"sum_hessian":[3.2612732E4,8.55082E3,2.4061912E4,7.7704307E3,7.8038965E2,5.331161E3,1.873075E4],"tree_param":{"num_deleted":"0","num_feature":"626","num_nodes":"7","size_leaf_vector":"0"}},{"base_weights":[3.9878704E-2,3.143611E-1,-1.9215102E-1,-3.606038E-2,2.3929177E-1,8.142515E-2,-1.6916668E-1],"categories":[],"categories_nodes":[],"categories_segments":[],"categories_sizes":[],"default_left":[0,0,0,0,0,0,0],"id":15,"left_children":[1,3,5,-1,-1,-1,-1],"loss_changes":[1.9391029E3,8.8523755E2,8.562397E2,0E0,0E0,0E0,0E0],"parents":[2147483647,0,0,1,1,2,2],"right_children":[2,4,6,-1,-1,-1,-1],"split_conditions":[1.6907716E-1,1.3687052E0,-7.6952806E0,-3.606038E-2,2.3929177E-1,8.142515E-2,-1.6916668E-1],"split_indices":[603,353,312,0,0,0,0],"split_type":[0,0,0,0,0,0,0],"sum_hessian":[3.044668E4,1.3947399E4,1.6499281E4,4.159193E3,9.788206E3,4.812411E3,1.168687E4],"tree_param":{"num_deleted":"0","num_feature":"626","num_nodes":"7","size_leaf_vector":"0"}},{"base_weights":[-1.8808514E-2,3.9214566E-1,-4.4345328E-1,-2.3247772E-1,2.5983307E-1,4.1380373E-1,-2.4847381E-1],"categories":[],"categories_nodes":[],"categories_segments":[],"categories_sizes":[],"default_left":[0,0,0,0,0,0,0],"id":16,"left_children":[1,3,5,-1,-1,-1,-1],"loss_changes":[4.006109E3,1.2751222E3,7.677085E2,0E0,0E0,0E0,0E0],"parents":[2147483647,0,0,1,1,2,2],"right_children":[2,4,6,-1,-1,-1,-1],"split_conditions":[2.7363567E0,-2.2137592E0,-4.0770507E0,-2.3247772E-1,2.5983307E-1,4.1380373E-1,-2.4847381E-1],"split_indices":[18,556,401,0,0,0,0],"split_type":[0,0,0,0,0,0,0],"sum_hessian":[2.295619E4,1.1666157E4,1.1290031E4,1.5108751E3,1.0155282E4,4.5590802E2,1.0834123E4],"tree_param":{"num_deleted":"0","num_feature":"626","num_nodes":"7","size_leaf_vector":"0"}},{"base_weights":[-7.78553E-2,-5.259656E-1,5.791068E-1,-2.6793244E-1,2.928226E-1,-2.776971E-1,3.2281387E-1],"categories":[],"categories_nodes":[],"categories_segments":[],"categories_sizes":[],"default_left":[0,0,0,0,0,0,0],"id":17,"left_children":[1,3,5,-1,-1,-1,-1],"loss_changes":[5.954215E3,1.3234521E2,6.1898804E2,0E0,0E0,0E0,0E0],"parents":[2147483647,0,0,1,1,2,2],"right_children":[2,4,6,-1,-1,-1,-1],"split_conditions":[2.1045783E-1,2.7077746E0,1.9748409E0,-2.6793244E-1,2.928226E-1,-2.776971E-1,3.2281387E-1],"split_indices":[428,130,256,0,0,0,0],"split_type":[0,0,0,0,0,0,0],"sum_hessian":[2.0225295E4,1.2023887E4,8.201408E3,1.1917807E4,1.0608034E2,4.5421027E2,7.7471978E3],"tree_param":{"num_deleted":"0","num_feature":"626","num_nodes":"7","size_leaf_vector":"0"}},{"base_weights":[8.942434E-3,3.0559552E-1,-3.4433904E-1,3.414517E-1,-7.510844E-2,9.342579E-2,-2.3673071E-1],"categories":[],"categories_nodes":[],"categories_segments":[],"categories_sizes":[],"default_left":[0,0,0,0,0,0,0],"id":18,"left_children":[1,3,5,-1,-1,-1,-1],"loss_changes":[2.7575938E3,2.459776E3,8.2375183E2,0E0,0E0,0E0,0E0],"parents":[2147483647,0,0,1,1,2,2],"right_children":[2,4,6,-1,-1,-1,-1],"split_conditions":[-2.8579333E0,-7.794214E0,-5.852817E0,3.414517E-1,-7.510844E-2,9.342579E-2,-2.3673071E-1],"split_indices":[349,165,350,0,0,0,0],"split_type":[0,0,0,0,0,0,0],"sum_hessian":[2.6312201E4,1.4302392E4,1.2009811E4,7.825022E3,6.477369E3,2.348476E3,9.661335E3],"tree_param":{"num_deleted":"0","num_feature":"626","num_nodes":"7","size_leaf_vector":"0"}},{"base_weights":[1.8630553E-2,-4.463145E-1,1.6504776E-1,-2.9081312E-1,1.7100105E-1,1.4077774E-1,-2.7159673E-1],"categories":[],"categories_nodes":[],"categories_segments":[],"categories_sizes":[],"default_left":[0,0,0,0,0,0,0],"id":19,"left_children":[1,3,5,-1,-1,-1,-1],"loss_changes":[2.0351097E3,7.6372156E2,1.8760154E3,0E0,0E0,0E0,0E0],"parents":[2147483647,0,0,1,1,2,2],"right_children":[2,4,6,-1,-1,-1,-1],"split_conditions":[-5.9792643E0,1.0978466E0,4.9914303E0,-2.9081312E-1,1.7100105E-1,1.4077774E-1,-2.7159673E-1],"split_indices":[350,356,301,0,0,0,0],"split_type":[0,0,0,0,0,0,0],"sum_hessian":[2.9894484E4,7.159482E3,2.2735002E4,6.1106387E3,1.0488433E3,1.9523406E4,3.211596E3],"tree_param":{"num_deleted":"0","num_feature":"626","num_nodes":"7","size_leaf_vector":"0"}},{"base_weights":[5.0853707E-2,-2.7438426E-1,2.1084991E-1,-2.3931963E-2,-2.772105E-1,1.4646459E-1,-3.0956438E-1],"categories":[],"categories_nodes":[],"categories_segments":[],"categories_sizes":[],"default_left":[0,0,0,0,0,0,0],"id":20,"left_children":[1,3,5,-1,-1,-1,-1],"loss_changes":[1.4825017E3,5.958859E2,1.3008889E3,0E0,0E0,0E0,0E0],"parents":[2147483647,0,0,1,1,2,2],"right_children":[2,4,6,-1,-1,-1,-1],"split_conditions":[-5.9588737E0,-2.626754E0,1.0126884E1,-2.3931963E-2,-2.772105E-1,1.4646459E-1,-3.0956438E-1],"split_indices":[153,399,202,0,0,0,0],"split_type":[0,0,0,0,0,0,0],"sum_hessian":[2.8489254E4,9.393734E3,1.909552E4,5.1931436E3,4.200591E3,1.7377105E4,1.7184131E3],"tree_param":{"num_deleted":"0","num_feature":"626","num_nodes":"7","size_leaf_vector":"0"}},{"base_weights":[-3.00154E-2,-2.5768092E-1,5.882736E-1,2.5271696E-1,-2.188502E-1,1.1710368E0,2.5670555E-1],"categories":[],"categories_nodes":[],"categories_segments":[],"categories_sizes":[],"default_left":[0,0,0,0,0,0,0],"id":21,"left_children":[1,3,5,-1,-1,-1,-1],"loss_changes":[2.654571E3,1.8934954E3,6.6622656E2,0E0,0E0,0E0,0E0],"parents":[2147483647,0,0,1,1,2,2],"right_children":[2,4,6,-1,-1,-1,-1],"split_conditions":[3.6595242E0,-2.8063126E0,-2.810479E0,2.5271696E-1,-2.188502E-1,1.1710368E0,2.5670555E-1],"split_indices":[303,401,447,0,0,0,0],"split_type":[0,0,0,0,0,0,0],"sum_hessian":[1.8858225E4,1.3783092E4,5.075133E3,2.6307942E3,1.1152298E4,2.0764375E2,4.8674893E3],"tree_param":{"num_deleted":"0","num_feature":"626","num_nodes":"7","size_leaf_vector":"0"}},{"base_weights":[-1.03008606E-1,-5.2860695E-1,5.0046945E-1,-2.6504987E-1,1.4876565E-1,2.862877E-1,-2.638273E-1],"categories":[],"categories_nodes":[],"categories_segments":[],"categories_sizes":[],"default_left":[0,0,0,0,0,0,0],"id":22,"left_children":[1,3,5,-1,-1,-1,-1],"loss_changes":[3.7960864E3,1.0705078E1,4.5318262E2,0E0,0E0,0E0,0E0],"parents":[2147483647,0,0,1,1,2,2],"right_children":[2,4,6,-1,-1,-1,-1],"split_conditions":[4.9914303E0,7.4698753E0,3.4991425E-1,-2.6504987E-1,1.4876565E-1,2.862877E-1,-2.638273E-1],"split_indices":[301,399,548,0,0,0,0],"split_type":[0,0,0,0,0,0,0],"sum_hessian":[1.4779806E4,8.667283E3,6.1125234E3,8.651686E3,1.5597618E1,5.7119673E3,4.00556E2],"tree_param":{"num_deleted":"0","num_feature":"626","num_nodes":"7","size_leaf_vector":"0"}},{"base_weights":[1.525388E-2,2.7448297E-1,-3.1569266E-1,-3.1269047E-2,2.9917678E-1,-2.483807E-1,1.5828568E-2],"categories":[],"categories_nodes":[],"categories_segments":[],"categories_sizes":[],"default_left":[0,0,0,0,0,0,0],"id":23,"left_children":[1,3,5,-1,-1,-1,-1],"loss_changes":[1.9534303E3,1.3936782E3,6.290288E2,0E0,0E0,0E0,0E0],"parents":[2147483647,0,0,1,1,2,2],"right_children":[2,4,6,-1,-1,-1,-1],"split_conditions":[-6.251169E-1,7.6796756E0,2.8785884E0,-3.1269047E-2,2.9917678E-1,-2.483807E-1,1.5828568E-2],"split_indices":[398,67,591,0,0,0,0],"split_type":[0,0,0,0,0,0,0],"sum_hessian":[2.276945E4,1.2768192E4,1.0001256E4,6.2571045E3,6.511088E3,6.5741816E3,3.4270745E3],"tree_param":{"num_deleted":"0","num_feature":"626","num_nodes":"7","size_leaf_vector":"0"}},{"base_weights":[1.0690738E-2,-5.030007E-1,1.0153495E-1,6.835018E-1,-2.789351E-1,-1.8790144E-2,2.5392255E-1],"categories":[],"categories_nodes":[],"categories_segments":[],"categories_sizes":[],"default_left":[0,0,0,0,0,0,0],"id":24,"left_children":[1,3,5,-1,-1,-1,-1],"loss_changes":[1.276286E3,4.2177075E2,1.3135957E3,0E0,0E0,0E0,0E0],"parents":[2147483647,0,0,1,1,2,2],"right_children":[2,4,6,-1,-1,-1,-1],"split_conditions":[-6.9196696E0,-3.747441E0,6.1678724E0,6.835018E-1,-2.789351E-1,-1.8790144E-2,2.5392255E-1],"split_indices":[350,133,447,0,0,0,0],"split_type":[0,0,0,0,0,0,0],"sum_hessian":[2.7349232E4,4.10973E3,2.3239502E4,1.170819E2,3.9926482E3,1.7312143E4,5.927359E3],"tree_param":{"num_deleted":"0","num_feature":"626","num_nodes":"7","size_leaf_vector":"0"}},{"base_weights":[4.251543E-2,2.0985112E-1,-2.0032825E-1,-1.661687E-1,1.628008E-1,2.2025552E-1,-1.4244898E-1],"categories":[],"categories_nodes":[],"categories_segments":[],"categories_sizes":[],"default_left":[0,0,0,0,0,0,0],"id":25,"left_children":[1,3,5,-1,-1,-1,-1],"loss_changes":[1.0916798E3,9.9818353E2,5.939751E2,0E0,0E0,0E0,0E0],"parents":[2147483647,0,0,1,1,2,2],"right_children":[2,4,6,-1,-1,-1,-1],"split_conditions":[7.858642E-1,-3.1948874E0,-2.9701288E0,-1.661687E-1,1.628008E-1,2.2025552E-1,-1.4244898E-1],"split_indices":[151,201,573,0,0,0,0],"split_type":[0,0,0,0,0,0,0],"sum_hessian":[2.686437E4,1.590486E4,1.0959509E4,2.7980918E3,1.3106769E4,1.2776335E3,9.681875E3],"tree_param":{"num_deleted":"0","num_feature":"626","num_nodes":"7","size_leaf_vector":"0"}},{"base_weights":[-2.9418157E-2,-2.2896004E-1,5.467624E-1,3.6313462E-1,-1.5958574E-1,3.0899775E-1,-2.6222765E-1],"categories":[],"categories_nodes":[],"categories_segments":[],"categories_sizes":[],"default_left":[0,0,0,0,0,0,0],"id":26,"left_children":[1,3,5,-1,-1,-1,-1],"loss_changes":[1.8021305E3,1.00328613E3,3.0769946E2,0E0,0E0,0E0,0E0],"parents":[2147483647,0,0,1,1,2,2],"right_children":[2,4,6,-1,-1,-1,-1],"split_conditions":[3.8520603E0,-4.0060244E0,8.417468E0,3.6313462E-1,-1.5958574E-1,3.0899775E-1,-2.6222765E-1],"split_indices":[206,10,557,0,0,0,0],"split_type":[0,0,0,0,0,0,0],"sum_hessian":[1.5674286E4,1.1642378E4,4.0319082E3,1.0045642E3,1.0637813E4,3.780554E3,2.5135435E2],"tree_param":{"num_deleted":"0","num_feature":"626","num_nodes":"7","size_leaf_vector":"0"}},{"base_weights":[-1.12665005E-1,4.724151E-1,-5.1107794E-1,-2.7819282E-1,2.712294E-1,4.8029074E-1,-2.6007068E-1],"categories":[],"categories_nodes":[],"categories_segments":[],"categories_sizes":[],"default_left":[0,0,0,0,0,0,0],"id":27,"left_children":[1,3,5,-1,-1,-1,-1],"loss_changes":[2.5712102E3,3.2202734E2,8.7574585E1,0E0,0E0,0E0,0E0],"parents":[2147483647,0,0,1,1,2,2],"right_children":[2,4,6,-1,-1,-1,-1],"split_conditions":[-1.9184004E0,1.9748409E0,-4.474673E0,-2.7819282E-1,2.712294E-1,4.8029074E-1,-2.6007068E-1],"split_indices":[411,256,409,0,0,0,0],"split_type":[0,0,0,0,0,0,0],"sum_hessian":[1.1030135E4,4.468299E3,6.5618354E3,2.847787E2,4.18352E3,4.010023E1,6.5217354E3],"tree_param":{"num_deleted":"0","num_feature":"626","num_nodes":"7","size_leaf_vector":"0"}},{"base_weights":[1.9882089E-2,-4.770754E-1,1.6534579E-1,-2.5219098E-1,2.3604527E-1,1.9077815E-1,-1.7556939E-1],"categories":[],"categories_nodes":[],"categories_segments":[],"categories_sizes":[],"default_left":[0,0,0,0,0,0,0],"id":28,"left_children":[1,3,5,-1,-1,-1,-1],"loss_changes":[1.4603696E3,1.185824E2,1.7451207E3,0E0,0E0,0E0,0E0],"parents":[2147483647,0,0,1,1,2,2],"right_children":[2,4,6,-1,-1,-1,-1],"split_conditions":[-2.7727115E-1,6.7295604E0,-1.2243957E-1,-2.5219098E-1,2.3604527E-1,1.9077815E-1,-1.7556939E-1],"split_indices":[451,591,549,0,0,0,0],"split_type":[0,0,0,0,0,0,0],"sum_hessian":[2.0201537E4,4.5741904E3,1.5627346E4,4.4463213E3,1.278693E2,1.10159E4,4.611445E3],"tree_param":{"num_deleted":"0","num_feature":"626","num_nodes":"7","size_leaf_vector":"0"}},{"base_weights":[6.2824045E-3,4.2425153E-1,-9.826144E-2,2.6757947E-1,-4.9823576E-1,5.235541E-2,-1.798959E-1],"categories":[],"categories_nodes":[],"categories_segments":[],"categories_sizes":[],"default_left":[0,0,0,0,0,0,0],"id":29,"left_children":[1,3,5,-1,-1,-1,-1],"loss_changes":[1.1130446E3,8.0310077E2,1.0816267E3,0E0,0E0,0E0,0E0],"parents":[2147483647,0,0,1,1,2,2],"right_children":[2,4,6,-1,-1,-1,-1],"split_conditions":[-2.195409E0,2.385496E0,2.7916756E-2,2.6757947E-1,-4.9823576E-1,5.235541E-2,-1.798959E-1],"split_indices":[205,574,175,0,0,0,0],"split_type":[0,0,0,0,0,0,0],"sum_hessian":[2.5472205E4,5.0963906E3,2.0375814E4,4.727412E3,3.6897858E2,1.1472292E4,8.903522E3],"tree_param":{"num_deleted":"0","num_feature":"626","num_nodes":"7","size_leaf_vector":"0"}},{"base_weights":[3.550475E-2,9.379735E-2,-4.88929E-1,-2.3250276E-1,8.2617626E-2,-2.6187932E-1,3.6631373E-1],"categories":[],"categories_nodes":[],"categories_segments":[],"categories_sizes":[],"default_left":[0,0,0,0,0,0,0],"id":30,"left_children":[1,3,5,-1,-1,-1,-1],"loss_changes":[7.7216943E2,9.074538E2,1.0754126E2,0E0,0E0,0E0,0E0],"parents":[2147483647,0,0,1,1,2,2],"right_children":[2,4,6,-1,-1,-1,-1],"split_conditions":[6.6010237E-1,-9.569032E0,1.9049521E-1,-2.3250276E-1,8.2617626E-2,-2.6187932E-1,3.6631373E-1],"split_indices":[301,399,304,0,0,0,0],"split_type":[0,0,0,0,0,0,0],"sum_hessian":[2.525831E4,2.2731688E4,2.5266223E3,2.5765784E3,2.015511E4,2.4566345E3,6.9987724E1],"tree_param":{"num_deleted":"0","num_feature":"626","num_nodes":"7","size_leaf_vector":"0"}},{"base_weights":[-1.9407718E-2,2.5398296E-1,-4.2064324E-1,-2.2973644E-2,2.834121E-1,-2.4098422E-1,2.7053276E-1],"categories":[],"categories_nodes":[],"categories_segments":[],"categories_sizes":[],"default_left":[0,0,0,0,0,0,0],"id":31,"left_children":[1,3,5,-1,-1,-1,-1],"loss_changes":[1.4321442E3,7.285945E2,3.120633E2,0E0,0E0,0E0,0E0],"parents":[2147483647,0,0,1,1,2,2],"right_children":[2,4,6,-1,-1,-1,-1],"split_conditions":[5.8199563E0,1.1108944E0,4.6039224E0,-2.2973644E-2,2.834121E-1,-2.4098422E-1,2.7053276E-1],"split_indices":[557,201,205,0,0,0,0],"split_type":[0,0,0,0,0,0,0],"sum_hessian":[1.3055607E4,7.7648755E3,5.2907324E3,3.9642834E3,3.800592E3,4.9736294E3,3.1710303E2],"tree_param":{"num_deleted":"0","num_feature":"626","num_nodes":"7","size_leaf_vector":"0"}},{"base_weights":[-1.295297E-1,-4.9458122E-1,4.486738E-1,-2.528784E-1,3.9312422E-1,-2.630866E-1,2.6001242E-1],"categories":[],"categories_nodes":[],"categories_segments":[],"categories_sizes":[],"default_left":[0,0,0,0,0,0,0],"id":32,"left_children":[1,3,5,-1,-1,-1,-1],"loss_changes":[1.7315239E3,7.201868E1,2.2085669E2,0E0,0E0,0E0,0E0],"parents":[2147483647,0,0,1,1,2,2],"right_children":[2,4,6,-1,-1,-1,-1],"split_conditions":[2.1045783E-1,1.7536658E0,2.0165055E0,-2.528784E-1,3.9312422E-1,-2.630866E-1,2.6001242E-1],"split_indices":[428,571,109,0,0,0,0],"split_type":[0,0,0,0,0,0,0],"sum_hessian":[8.203189E3,5.0284614E3,3.1747283E3,4.9850264E3,4.3435158E1,2.1647389E2,2.9582544E3],"tree_param":{"num_deleted":"0","num_feature":"626","num_nodes":"7","size_leaf_vector":"0"}},{"base_weights":[1.6314156E-2,1.5595172E-1,-3.8633588E-1,1.4876315E-1,-2.072583E-1,3.644326E-1,-2.2527944E-1],"categories":[],"categories_nodes":[],"categories_segments":[],"categories_sizes":[],"default_left":[0,0,0,0,0,0,0],"id":33,"left_children":[1,3,5,-1,-1,-1,-1],"loss_changes":[1.0148681E3,1.0824282E3,3.3291925E2,0E0,0E0,0E0,0E0],"parents":[2147483647,0,0,1,1,2,2],"right_children":[2,4,6,-1,-1,-1,-1],"split_conditions":[1.8602293E0,2.6719266E-1,-5.412982E-1,1.4876315E-1,-2.072583E-1,3.644326E-1,-2.2527944E-1],"split_indices":[302,549,417,0,0,0,0],"split_type":[0,0,0,0,0,0,0],"sum_hessian":[1.804989E4,1.3402139E4,4.647752E3,1.0737447E4,2.6646917E3,2.5302695E2,4.3947246E3],"tree_param":{"num_deleted":"0","num_feature":"626","num_nodes":"7","size_leaf_vector":"0"}},{"base_weights":[5.2964822E-3,1.738449E-1,-2.0739514E-1,1.3376255E-1,-2.6861572E-1,-1.9575053E-1,2.2625129E-1],"categories":[],"categories_nodes":[],"categories_segments":[],"categories_sizes":[],"default_left":[0,0,0,0,0,0,0],"id":34,"left_children":[1,3,5,-1,-1,-1,-1],"loss_changes":[8.439385E2,8.7490063E2,1.2644812E3,0E0,0E0,0E0,0E0],"parents":[2147483647,0,0,1,1,2,2],"right_children":[2,4,6,-1,-1,-1,-1],"split_conditions":[2.2750523E0,4.9914303E0,2.1159952E0,1.3376255E-1,-2.6861572E-1,-1.9575053E-1,2.2625129E-1],"split_indices":[402,301,351,0,0,0,0],"split_type":[0,0,0,0,0,0,0],"sum_hessian":[2.3541385E4,1.3133613E4,1.0407771E4,1.1604809E4,1.5288043E3,8.1375146E3,2.2702573E3],"tree_param":{"num_deleted":"0","num_feature":"626","num_nodes":"7","size_leaf_vector":"0"}},{"base_weights":[3.275552E-2,3.5326818E-1,-5.293186E-2,-8.887164E-2,2.8262892E-1,-8.612133E-2,1.2522767E-1],"categories":[],"categories_nodes":[],"categories_segments":[],"categories_sizes":[],"default_left":[0,0,0,0,0,0,0],"id":35,"left_children":[1,3,5,-1,-1,-1,-1],"loss_changes":[6.600489E2,5.7071216E2,6.864356E2,0E0,0E0,0E0,0E0],"parents":[2147483647,0,0,1,1,2,2],"right_children":[2,4,6,-1,-1,-1,-1],"split_conditions":[-6.9636E-1,4.6174482E-1,4.5152087E-2,-8.887164E-2,2.8262892E-1,-8.612133E-2,1.2522767E-1],"split_indices":[551,476,318,0,0,0,0],"split_type":[0,0,0,0,0,0,0],"sum_hessian":[2.4033168E4,5.0697E3,1.8963469E4,1.4464683E3,3.623232E3,1.3610868E4,5.3526E3],"tree_param":{"num_deleted":"0","num_feature":"626","num_nodes":"7","size_leaf_vector":"0"}},{"base_weights":[-2.2724979E-2,2.3309503E-1,-3.6500722E-1,1.7296566E-1,-1.696709E-1,3.7276098E-1,-2.1773048E-1],"categories":[],"categories_nodes":[],"categories_segments":[],"categories_sizes":[],"default_left":[0,0,0,0,0,0,0],"id":36,"left_children":[1,3,5,-1,-1,-1,-1],"loss_changes":[9.593549E2,4.0500342E2,3.6668378E2,0E0,0E0,0E0,0E0],"parents":[2147483647,0,0,1,1,2,2],"right_children":[2,4,6,-1,-1,-1,-1],"split_conditions":[2.9672623E0,6.453639E0,-4.3612776E0,1.7296566E-1,-1.696709E-1,3.7276098E-1,-2.1773048E-1],"split_indices":[18,557,353,0,0,0,0],"split_type":[0,0,0,0,0,0,0],"sum_hessian":[1.0956016E4,6.2699316E3,4.6860835E3,5.237565E3,1.0323667E3,2.7949985E2,4.4065835E3],"tree_param":{"num_deleted":"0","num_feature":"626","num_nodes":"7","size_leaf_vector":"0"}},{"base_weights":[-1.5289061E-1,4.2225862E-1,-4.8464164E-1,-2.5046882E-1,2.565315E-1,-2.5119418E-1,2.5923917E-1],"categories":[],"categories_nodes":[],"categories_segments":[],"categories_sizes":[],"default_left":[0,0,0,0,0,0,0],"id":37,"left_children":[1,3,5,-1,-1,-1,-1],"loss_changes":[1.1561246E3,1.8583542E2,6.843323E1,0E0,0E0,0E0,0E0],"parents":[2147483647,0,0,1,1,2,2],"right_children":[2,4,6,-1,-1,-1,-1],"split_conditions":[-2.6217601E0,1.9051937E0,2.8961835E0,-2.5046882E-1,2.565315E-1,-2.5119418E-1,2.5923917E-1],"split_indices":[460,550,130,0,0,0,0],"split_type":[0,0,0,0,0,0,0],"sum_hessian":[6.058945E3,2.2163982E3,3.8425464E3,1.9843944E2,2.0179587E3,3.7757969E3,6.674965E1],"tree_param":{"num_deleted":"0","num_feature":"626","num_nodes":"7","size_leaf_vector":"0"}},{"base_weights":[1.1425483E-2,-1.7140986E-1,2.7723122E-1,9.7524665E-2,-1.7705552E-1,-1.5548898E-1,2.1728283E-1],"categories":[],"categories_nodes":[],"categories_segments":[],"categories_sizes":[],"default_left":[0,0,0,0,0,0,0],"id":38,"left_children":[1,3,5,-1,-1,-1,-1],"loss_changes":[7.923797E2,6.4676416E2,6.1494324E2,0E0,0E0,0E0,0E0],"parents":[2147483647,0,0,1,1,2,2],"right_children":[2,4,6,-1,-1,-1,-1],"split_conditions":[-1.2199806E0,-4.205981E0,-1.2304168E-1,9.7524665E-2,-1.7705552E-1,-1.5548898E-1,2.1728283E-1],"split_indices":[608,448,295,0,0,0,0],"split_type":[0,0,0,0,0,0,0],"sum_hessian":[1.6304354E4,9.659838E3,6.644515E3,3.213747E3,6.446091E3,1.4021925E3,5.2423228E3],"tree_param":{"num_deleted":"0","num_feature":"626","num_nodes":"7","size_leaf_vector":"0"}},{"base_weights":[9.166987E-3,-6.482898E-2,4.3358296E-1,-1.1624562E-1,1.04705155E-1,3.2468894E-1,-3.1165725E-1],"categories":[],"categories_nodes":[],"categories_segments":[],"categories_sizes":[],"default_left":[0,0,0,0,0,0,0],"id":39,"left_children":[1,3,5,-1,-1,-1,-1],"loss_changes":[6.9148395E2,8.620915E2,7.455892E2,0E0,0E0,0E0,0E0],"parents":[2147483647,0,0,1,1,2,2],"right_children":[2,4,6,-1,-1,-1,-1],"split_conditions":[8.878248E0,5.3577223E0,3.314381E0,-1.1624562E-1,1.04705155E-1,3.2468894E-1,-3.1165725E-1],"split_indices":[214,447,353,0,0,0,0],"split_type":[0,0,0,0,0,0,0],"sum_hessian":[2.201804E4,1.8749236E4,3.2688022E3,1.1635582E4,7.1136553E3,2.7145833E3,5.542189E2],"tree_param":{"num_deleted":"0","num_feature":"626","num_nodes":"7","size_leaf_vector":"0"}},{"base_weights":[2.362204E-2,4.2079037E-1,-3.2463513E-2,-1.5045074E-1,2.6900986E-1,6.350059E-2,-8.982367E-2],"categories":[],"categories_nodes":[],"categories_segments":[],"categories_sizes":[],"default_left":[0,0,0,0,0,0,0],"id":40,"left_children":[1,3,5,-1,-1,-1,-1],"loss_changes":[5.0840466E2,2.3895215E2,4.6940158E2,0E0,0E0,0E0,0E0],"parents":[2147483647,0,0,1,1,2,2],"right_children":[2,4,6,-1,-1,-1,-1],"split_conditions":[-5.1613622E-3,-1.8441721E0,1.7509727E-1,-1.5045074E-1,2.6900986E-1,6.350059E-2,-8.982367E-2],"split_indices":[308,53,606,0,0,0,0],"split_type":[0,0,0,0,0,0,0],"sum_hessian":[2.2823424E4,2.8240857E3,1.9999338E4,3.9461078E2,2.4294749E3,9.599202E3,1.0400136E4],"tree_param":{"num_deleted":"0","num_feature":"626","num_nodes":"7","size_leaf_vector":"0"}},{"base_weights":[-1.2787924E-2,-1.5154651E-1,4.995506E-1,3.3100855E-1,-1.2620392E-1,2.851478E-1,-1.4338437E-1],"categories":[],"categories_nodes":[],"categories_segments":[],"categories_sizes":[],"default_left":[0,0,0,0,0,0,0],"id":41,"left_children":[1,3,5,-1,-1,-1,-1],"loss_changes":[6.8270575E2,6.200911E2,1.1386432E2,0E0,0E0,0E0,0E0],"parents":[2147483647,0,0,1,1,2,2],"right_children":[2,4,6,-1,-1,-1,-1],"split_conditions":[3.9937103E0,-8.120953E0,8.575423E0,3.3100855E-1,-1.2620392E-1,2.851478E-1,-1.4338437E-1],"split_indices":[205,448,508,0,0,0,0],"split_type":[0,0,0,0,0,0,0],"sum_hessian":[9.60301E3,7.5565195E3,2.0464904E3,8.3342505E2,6.7230947E3,1.8775914E3,1.6889894E2],"tree_param":{"num_deleted":"0","num_feature":"626","num_nodes":"7","size_leaf_vector":"0"}},{"base_weights":[-1.4840782E-1,-5.0506204E-1,3.620253E-1,3.8989553E-1,-2.547655E-1,-2.2302562E-1,2.452656E-1],"categories":[],"categories_nodes":[],"categories_segments":[],"categories_sizes":[],"default_left":[0,0,0,0,0,0,0],"id":42,"left_children":[1,3,5,-1,-1,-1,-1],"loss_changes":[8.450234E2,1.5729431E1,1.9828711E2,0E0,0E0,0E0,0E0],"parents":[2147483647,0,0,1,1,2,2],"right_children":[2,4,6,-1,-1,-1,-1],"split_conditions":[3.7120984E0,-1.561134E1,-3.7840645E0,3.8989553E-1,-2.547655E-1,-2.2302562E-1,2.452656E-1],"split_indices":[301,203,402,0,0,0,0],"split_type":[0,0,0,0,0,0,0],"sum_hessian":[4.641557E3,2.7323718E3,1.9091854E3,9.410588E0,2.7229612E3,2.6192026E2,1.6472653E3],"tree_param":{"num_deleted":"0","num_feature":"626","num_nodes":"7","size_leaf_vector":"0"}},{"base_weights":[9.8561505E-3,2.8831246E-1,-1.5327407E-1,2.9105827E-1,-6.4888746E-2,2.4884857E-2,-2.1021058E-1],"categories":[],"categories_nodes":[],"categories_segments":[],"categories_sizes":[],"default_left":[0,0,0,0,0,0,0],"id":43,"left_children":[1,3,5,-1,-1,-1,-1],"loss_changes":[6.872675E2,6.8657056E2,5.1750867E2,0E0,0E0,0E0,0E0],"parents":[2147483647,0,0,1,1,2,2],"right_children":[2,4,6,-1,-1,-1,-1],"split_conditions":[-2.4887994E-1,-2.2181423E0,-2.0537734E0,2.9105827E-1,-6.4888746E-2,2.4884857E-2,-2.1021058E-1],"split_indices":[351,448,398,0,0,0,0],"split_type":[0,0,0,0,0,0,0],"sum_hessian":[1.5129642E4,5.5891406E3,9.540501E3,3.2824368E3,2.3067036E3,5.420647E3,4.1198535E3],"tree_param":{"num_deleted":"0","num_feature":"626","num_nodes":"7","size_leaf_vector":"0"}},{"base_weights":[6.037882E-3,-3.2889377E-2,7.794668E-1,-1.6095486E-1,4.4567104E-2,5.44408E-1,-2.3228219E-3],"categories":[],"categories_nodes":[],"categories_segments":[],"categories_sizes":[],"default_left":[0,0,0,0,0,0,0],"id":44,"left_children":[1,3,5,-1,-1,-1,-1],"loss_changes":[6.153416E2,6.862624E2,2.3756238E2,0E0,0E0,0E0,0E0],"parents":[2147483647,0,0,1,1,2,2],"right_children":[2,4,6,-1,-1,-1,-1],"split_conditions":[3.0505207E0,-2.638763E0,-5.1938884E-2,-1.6095486E-1,4.4567104E-2,5.44408E-1,-2.3228219E-3],"split_indices":[8,349,512,0,0,0,0],"split_type":[0,0,0,0,0,0,0],"sum_hessian":[2.0437984E4,1.9458707E4,9.7927563E2,5.7765146E3,1.3682193E4,7.022027E2,2.7707294E2],"tree_param":{"num_deleted":"0","num_feature":"626","num_nodes":"7","size_leaf_vector":"0"}},{"base_weights":[2.276549E-2,-4.929116E-2,3.0155602E-1,5.0795004E-2,-9.485469E-2,2.0077953E-1,-1.8025315E-1],"categories":[],"categories_nodes":[],"categories_segments":[],"categories_sizes":[],"default_left":[0,0,0,0,0,0,0],"id":45,"left_children":[1,3,5,-1,-1,-1,-1],"loss_changes":[4.4104422E2,3.6961664E2,2.9855142E2,0E0,0E0,0E0,0E0],"parents":[2147483647,0,0,1,1,2,2],"right_children":[2,4,6,-1,-1,-1,-1],"split_conditions":[1.8297039E0,2.0561843E0,-1.6229548E0,5.0795004E-2,-9.485469E-2,2.0077953E-1,-1.8025315E-1],"split_indices":[574,476,399,0,0,0,0],"split_type":[0,0,0,0,0,0,0],"sum_hessian":[2.1954654E4,1.7445693E4,4.50896E3,8.409552E3,9.036143E3,3.9172998E3,5.916601E2],"tree_param":{"num_deleted":"0","num_feature":"626","num_nodes":"7","size_leaf_vector":"0"}},{"base_weights":[-6.0180915E-3,-1.5690121E-1,4.29831E-1,2.2976741E-1,-1.3482721E-1,-6.049928E-3,3.159335E-1],"categories":[],"categories_nodes":[],"categories_segments":[],"categories_sizes":[],"default_left":[0,0,0,0,0,0,0],"id":46,"left_children":[1,3,5,-1,-1,-1,-1],"loss_changes":[5.5812775E2,4.3820978E2,1.9486877E2,0E0,0E0,0E0,0E0],"parents":[2147483647,0,0,1,1,2,2],"right_children":[2,4,6,-1,-1,-1,-1],"split_conditions":[2.5763454E0,-4.4531837E0,-7.286219E-1,2.2976741E-1,-1.3482721E-1,-6.049928E-3,3.159335E-1],"split_indices":[10,549,182,0,0,0,0],"split_type":[0,0,0,0,0,0,0],"sum_hessian":[8.486849E3,6.3044316E3,2.182417E3,9.747952E2,5.3296367E3,6.8473364E2,1.4976832E3],"tree_param":{"num_deleted":"0","num_feature":"626","num_nodes":"7","size_leaf_vector":"0"}},{"base_weights":[-1.4777607E-1,-5.0968605E-1,3.216751E-1,-2.8655738E-1,-2.5460213E-1,2.4616726E-1,-2.3290366E-1],"categories":[],"categories_nodes":[],"categories_segments":[],"categories_sizes":[],"default_left":[0,0,0,0,0,0,0],"id":47,"left_children":[1,3,5,-1,-1,-1,-1],"loss_changes":[6.121699E2,3.302002E-2,2.1082178E2,0E0,0E0,0E0,0E0],"parents":[2147483647,0,0,1,1,2,2],"right_children":[2,4,6,-1,-1,-1,-1],"split_conditions":[1.2593476E0,-3.9079723E0,-1.3907862E0,-2.8655738E-1,-2.5460213E-1,2.4616726E-1,-2.3290366E-1],"split_indices":[350,411,254,0,0,0,0],"split_type":[0,0,0,0,0,0,0],"sum_hessian":[3.6029417E3,2.0344962E3,1.5684454E3,1.444087E1,2.0200553E3,1.2891127E3,2.7933282E2],"tree_param":{"num_deleted":"0","num_feature":"626","num_nodes":"7","size_leaf_vector":"0"}},{"base_weights":[3.312677E-3,7.84862E-2,-4.7656783E-1,-1.4931689E-1,1.00804225E-1,-2.4602108E-1,2.9670117E0],"categories":[],"categories_nodes":[],"categories_segments":[],"categories_sizes":[],"default_left":[0,0,0,0,0,0,0],"id":48,"left_children":[1,3,5,-1,-1,-1,-1],"loss_changes":[5.070603E2,5.6426117E2,1.891348E2,0E0,0E0,0E0,0E0],"parents":[2147483647,0,0,1,1,2,2],"right_children":[2,4,6,-1,-1,-1,-1],"split_conditions":[6.2084216E-1,6.640115E-2,8.65724E0,-1.4931689E-1,1.00804225E-1,-2.4602108E-1,2.9670117E0],"split_indices":[549,451,546,0,0,0,0],"split_type":[0,0,0,0,0,0,0],"sum_hessian":[1.4055793E4,1.2152225E4,1.9035682E3,2.9909346E3,9.16129E3,1.8990764E3,4.4917903E0],"tree_param":{"num_deleted":"0","num_feature":"626","num_nodes":"7","size_leaf_vector":"0"}},{"base_weights":[1.9057554E-3,-2.7921954E-1,9.614928E-2,-2.162783E-1,1.01100504E-1,-1.364143E-1,1.00129865E-1],"categories":[],"categories_nodes":[],"categories_segments":[],"categories_sizes":[],"default_left":[0,0,0,0,0,0,0],"id":49,"left_children":[1,3,5,-1,-1,-1,-1],"loss_changes":[5.1640564E2,3.61256E2,5.60764E2,0E0,0E0,0E0,0E0],"parents":[2147483647,0,0,1,1,2,2],"right_children":[2,4,6,-1,-1,-1,-1],"split_conditions":[-4.1634017E-1,7.8214355E0,-5.293767E0,-2.162783E-1,1.01100504E-1,-1.364143E-1,1.00129865E-1],"split_indices":[351,214,350,0,0,0,0],"split_type":[0,0,0,0,0,0,0],"sum_hessian":[1.9491041E4,4.89355E3,1.4597492E4,3.711433E3,1.1821167E3,3.2123696E3,1.1385122E4],"tree_param":{"num_deleted":"0","num_feature":"626","num_nodes":"7","size_leaf_vector":"0"}},{"base_weights":[2.4339333E-2,-6.463482E-1,5.2866764E-2,6.5462875E-1,-3.3540908E-1,1.6449209E-1,-1.0684216E-2],"categories":[],"categories_nodes":[],"categories_segments":[],"categories_sizes":[],"default_left":[0,0,0,0,0,0,0],"id":50,"left_children":[1,3,5,-1,-1,-1,-1],"loss_changes":[4.0749323E2,4.166971E1,4.18745E2,0E0,0E0,0E0,0E0],"parents":[2147483647,0,0,1,1,2,2],"right_children":[2,4,6,-1,-1,-1,-1],"split_conditions":[-1.0579322E1,-1.5041562E0,-6.815767E-1,6.5462875E-1,-3.3540908E-1,1.6449209E-1,-1.0684216E-2],"split_indices":[349,326,551,0,0,0,0],"split_type":[0,0,0,0,0,0,0],"sum_hessian":[2.1297654E4,8.688396E2,2.0428814E4,1.0672315E1,8.5816724E2,4.32853E3,1.6100285E4],"tree_param":{"num_deleted":"0","num_feature":"626","num_nodes":"7","size_leaf_vector":"0"}},{"base_weights":[-3.043925E-3,-1.4202774E-1,4.753494E-1,-1.5835139E-1,2.1651997E-1,1.0095328E0,2.1514675E-1],"categories":[],"categories_nodes":[],"categories_segments":[],"categories_sizes":[],"default_left":[0,0,0,0,0,0,0],"id":51,"left_children":[1,3,5,-1,-1,-1,-1],"loss_changes":[4.961495E2,5.808417E2,1.1675433E2,0E0,0E0,0E0,0E0],"parents":[2147483647,0,0,1,1,2,2],"right_children":[2,4,6,-1,-1,-1,-1],"split_conditions":[5.830572E0,4.0620217E0,-4.22386E0,-1.5835139E-1,2.1651997E-1,1.0095328E0,2.1514675E-1],"split_indices":[398,303,547,0,0,0,0],"split_type":[0,0,0,0,0,0,0],"sum_hessian":[7.4619355E3,5.7821606E3,1.6797749E3,4.4350674E3,1.3470933E3,4.7512398E1,1.6322626E3],"tree_param":{"num_deleted":"0","num_feature":"626","num_nodes":"7","size_leaf_vector":"0"}},{"base_weights":[-1.5783559E-1,-5.0759053E-1,2.8422853E-1,-2.5352627E-1,-2.7767307E-1,2.2455437E-1,-2.1234547E-1],"categories":[],"categories_nodes":[],"categories_segments":[],"categories_sizes":[],"default_left":[0,0,0,0,0,0,0],"id":52,"left_children":[1,3,5,-1,-1,-1,-1],"loss_changes":[4.2581018E2,1.1352539E-2,1.4221214E2,0E0,0E0,0E0,0E0],"parents":[2147483647,0,0,1,1,2,2],"right_children":[2,4,6,-1,-1,-1,-1],"split_conditions":[1.2593476E0,6.056161E0,-1.3907862E0,-2.5352627E-1,-2.7767307E-1,2.2455437E-1,-2.1234547E-1],"split_indices":[350,301,254,0,0,0,0],"split_type":[0,0,0,0,0,0,0],"sum_hessian":[2.7538252E3,1.5374229E3,1.2164023E3,1.5214441E3,1.5978707E1,9.86905E2,2.2949736E2],"tree_param":{"num_deleted":"0","num_feature":"626","num_nodes":"7","size_leaf_vector":"0"}},{"base_weights":[-1.4014692E-3,-2.9643893E-1,1.13626085E-1,-1.737614E-1,7.596265E-1,9.9311E-2,-1.9961849E-1],"categories":[],"categories_nodes":[],"categories_segments":[],"categories_sizes":[],"default_left":[0,0,0,0,0,0,0],"id":53,"left_children":[1,3,5,-1,-1,-1,-1],"loss_changes":[4.4717184E2,3.4287616E2,4.1326413E2,0E0,0E0,0E0,0E0],"parents":[2147483647,0,0,1,1,2,2],"right_children":[2,4,6,-1,-1,-1,-1],"split_conditions":[-1.03456065E-1,6.1001616E0,7.68693E-1,-1.737614E-1,7.596265E-1,9.9311E-2,-1.9961849E-1],"split_indices":[294,377,552,0,0,0,0],"split_type":[0,0,0,0,0,0,0],"sum_hessian":[1.3176159E4,3.6960073E3,9.480151E3,3.5949456E3,1.0106166E2,8.132438E3,1.3477139E3],"tree_param":{"num_deleted":"0","num_feature":"626","num_nodes":"7","size_leaf_vector":"0"}},{"base_weights":[-2.2974222E-3,-4.407573E-2,5.0905704E-1,-1.3081856E-1,5.2888375E-2,-2.4507448E-1,3.5243374E-1],"categories":[],"categories_nodes":[],"categories_segments":[],"categories_sizes":[],"default_left":[0,0,0,0,0,0,0],"id":54,"left_children":[1,3,5,-1,-1,-1,-1],"loss_changes":[3.9544467E2,5.57896E2,2.7357724E2,0E0,0E0,0E0,0E0],"parents":[2147483647,0,0,1,1,2,2],"right_children":[2,4,6,-1,-1,-1,-1],"split_conditions":[1.1051915E1,-7.10746E-2,-9.572114E-1,-1.3081856E-1,5.2888375E-2,-2.4507448E-1,3.5243374E-1],"split_indices":[202,78,347,0,0,0,0],"split_type":[0,0,0,0,0,0,0],"sum_hessian":[1.8510066E4,1.711208E4,1.3979872E3,6.9792583E3,1.013282E4,2.2904373E2,1.1689434E3],"tree_param":{"num_deleted":"0","num_feature":"626","num_nodes":"7","size_leaf_vector":"0"}},{"base_weights":[1.6136507E-2,-7.347754E-2,2.0865661E-1,-1.7145108E-1,2.2637542E-2,2.5710022E-1,1.680062E-2],"categories":[],"categories_nodes":[],"categories_segments":[],"categories_sizes":[],"default_left":[0,0,0,0,0,0,0],"id":55,"left_children":[1,3,5,-1,-1,-1,-1],"loss_changes":[3.5403503E2,4.4801947E2,3.4862714E2,0E0,0E0,0E0,0E0],"parents":[2147483647,0,0,1,1,2,2],"right_children":[2,4,6,-1,-1,-1,-1],"split_conditions":[9.146615E-2,-5.8807597E0,6.883498E-3,-1.7145108E-1,2.2637542E-2,2.5710022E-1,1.680062E-2],"split_indices":[30,153,269,0,0,0,0],"split_type":[0,0,0,0,0,0,0],"sum_hessian":[2.0520602E4,1.4002701E4,6.5179E3,4.2837007E3,9.719001E3,2.3740352E3,4.1438647E3],"tree_param":{"num_deleted":"0","num_feature":"626","num_nodes":"7","size_leaf_vector":"0"}},{"base_weights":[2.832159E-5,2.0415035E-1,-3.184811E-1,-2.3316124E-1,1.4932166E-1,3.1152424E-1,-2.0113328E-1],"categories":[],"categories_nodes":[],"categories_segments":[],"categories_sizes":[],"default_left":[0,0,0,0,0,0,0],"id":56,"left_children":[1,3,5,-1,-1,-1,-1],"loss_changes":[4.383673E2,2.603495E2,2.0776645E2,0E0,0E0,0E0,0E0],"parents":[2147483647,0,0,1,1,2,2],"right_children":[2,4,6,-1,-1,-1,-1],"split_conditions":[5.683135E0,-2.6543744E0,-3.5667846E0,-2.3316124E-1,1.4932166E-1,3.1152424E-1,-2.0113328E-1],"split_indices":[557,556,400,0,0,0,0],"split_type":[0,0,0,0,0,0,0],"sum_hessian":[6.742379E3,4.109057E3,2.6333213E3,5.075258E2,3.6015315E3,2.1513402E2,2.4181873E3],"tree_param":{"num_deleted":"0","num_feature":"626","num_nodes":"7","size_leaf_vector":"0"}},{"base_weights":[-1.5880728E-1,-4.9872375E-1,2.621078E-1,4.3531343E-1,-2.5330883E-1,-1.3208821E-1,2.3758857E-1],"categories":[],"categories_nodes":[],"categories_segments":[],"categories_sizes":[],"default_left":[0,0,0,0,0,0,0],"id":57,"left_children":[1,3,5,-1,-1,-1,-1],"loss_changes":[3.0874774E2,1.29487E1,1.08124405E2,0E0,0E0,0E0,0E0],"parents":[2147483647,0,0,1,1,2,2],"right_children":[2,4,6,-1,-1,-1,-1],"split_conditions":[1.8101449E0,-2.8241765E-1,1.7789042E0,4.3531343E-1,-2.5330883E-1,-1.3208821E-1,2.3758857E-1],"split_indices":[350,291,615,0,0,0,0],"split_type":[0,0,0,0,0,0,0],"sum_hessian":[2.1577373E3,1.1937155E3,9.6402185E2,6.7793407E0,1.1869362E3,2.778081E2,6.8621375E2],"tree_param":{"num_deleted":"0","num_feature":"626","num_nodes":"7","size_leaf_vector":"0"}},{"base_weights":[-3.7821238E-3,9.277381E-2,-3.3874083E-1,-2.0092309E-1,8.6330354E-2,7.421257E-1,-1.8560413E-1],"categories":[],"categories_nodes":[],"categories_segments":[],"categories_sizes":[],"default_left":[0,0,0,0,0,0,0],"id":58,"left_children":[1,3,5,-1,-1,-1,-1],"loss_changes":[4.049631E2,3.8405746E2,1.6588437E2,0E0,0E0,0E0,0E0],"parents":[2147483647,0,0,1,1,2,2],"right_children":[2,4,6,-1,-1,-1,-1],"split_conditions":[9.43078E-1,5.117394E-1,-6.7293053E0,-2.0092309E-1,8.6330354E-2,7.421257E-1,-1.8560413E-1],"split_indices":[351,299,496,0,0,0,0],"split_type":[0,0,0,0,0,0,0],"sum_hessian":[1.2520982E4,9.719337E3,2.8016453E3,1.3514469E3,8.367891E3,4.8945824E1,2.7526995E3],"tree_param":{"num_deleted":"0","num_feature":"626","num_nodes":"7","size_leaf_vector":"0"}},{"base_weights":[3.32715E-3,-8.3393574E-2,2.6289627E-1,-9.490398E-2,1.4374258E-1,-2.1752822E-1,1.9938023E-1],"categories":[],"categories_nodes":[],"categories_segments":[],"categories_sizes":[],"default_left":[0,0,0,0,0,0,0],"id":59,"left_children":[1,3,5,-1,-1,-1,-1],"loss_changes":[3.9722937E2,5.220542E2,4.190806E2,0E0,0E0,0E0,0E0],"parents":[2147483647,0,0,1,1,2,2],"right_children":[2,4,6,-1,-1,-1,-1],"split_conditions":[7.2125573E0,4.682705E-1,-1.9308636E0,-9.490398E-2,1.4374258E-1,-2.1752822E-1,1.9938023E-1],"split_indices":[496,277,248,0,0,0,0],"split_type":[0,0,0,0,0,0,0],"sum_hessian":[1.764658E4,1.3227431E4,4.4191494E3,1.027836E4,2.94907E3,7.200314E2,3.6991182E3],"tree_param":{"num_deleted":"0","num_feature":"626","num_nodes":"7","size_leaf_vector":"0"}},{"base_weights":[1.2395423E-2,6.464277E-2,-3.2375422E-1,-2.7553117E-2,1.4148466E-1,-2.105607E-1,3.1752545E-1],"categories":[],"categories_nodes":[],"categories_segments":[],"categories_sizes":[],"default_left":[0,0,0,0,0,0,0],"id":60,"left_children":[1,3,5,-1,-1,-1,-1],"loss_changes":[3.4456744E2,4.4392914E2,2.464086E2,0E0,0E0,0E0,0E0],"parents":[2147483647,0,0,1,1,2,2],"right_children":[2,4,6,-1,-1,-1,-1],"split_conditions":[6.912448E-1,-7.1891266E-1,1.8098935E0,-2.7553117E-2,1.4148466E-1,-2.105607E-1,3.1752545E-1],"split_indices":[153,58,166,0,0,0,0],"split_type":[0,0,0,0,0,0,0],"sum_hessian":[1.96188E4,1.697974E4,2.6390605E3,1.0965433E4,6.014308E3,2.3958198E3,2.4324072E2],"tree_param":{"num_deleted":"0","num_feature":"626","num_nodes":"7","size_leaf_vector":"0"}},{"base_weights":[2.6398716E-3,-1.2433881E-1,5.314768E-1,-1.696299E-1,1.135773E-1,3.2422283E-1,-2.3240383E-1],"categories":[],"categories_nodes":[],"categories_segments":[],"categories_sizes":[],"default_left":[0,0,0,0,0,0,0],"id":61,"left_children":[1,3,5,-1,-1,-1,-1],"loss_changes":[4.073335E2,3.6952414E2,1.3689761E2,0E0,0E0,0E0,0E0],"parents":[2147483647,0,0,1,1,2,2],"right_children":[2,4,6,-1,-1,-1,-1],"split_conditions":[3.7120984E0,3.4133806E0,1.436342E0,-1.696299E-1,1.135773E-1,3.2422283E-1,-2.3240383E-1],"split_indices":[301,352,277,0,0,0,0],"split_type":[0,0,0,0,0,0,0],"sum_hessian":[6.065734E3,4.891351E3,1.1743827E3,3.0353728E3,1.8559783E3,1.0510222E3,1.2336043E2],"tree_param":{"num_deleted":"0","num_feature":"626","num_nodes":"7","size_leaf_vector":"0"}},{"base_weights":[-1.5222482E-1,-4.652698E-1,2.96832E-1,-2.4864167E-1,2.0628083E-1,2.4352321E-1,-2.5496757E-1],"categories":[],"categories_nodes":[],"categories_segments":[],"categories_sizes":[],"default_left":[0,0,0,0,0,0,0],"id":62,"left_children":[1,3,5,-1,-1,-1,-1],"loss_changes":[2.3705502E2,2.7943756E1,1.0632637E2,0E0,0E0,0E0,0E0],"parents":[2147483647,0,0,1,1,2,2],"right_children":[2,4,6,-1,-1,-1,-1],"split_conditions":[3.1924958E0,1.6891204E0,-8.042649E-1,-2.4864167E-1,2.0628083E-1,2.4352321E-1,-2.5496757E-1],"split_indices":[550,81,107,0,0,0,0],"split_type":[0,0,0,0,0,0,0],"sum_hessian":[1.6861262E3,9.935219E2,6.926043E2,9.58606E2,3.491594E1,5.6049414E2,1.3211012E2],"tree_param":{"num_deleted":"0","num_feature":"626","num_nodes":"7","size_leaf_vector":"0"}},{"base_weights":[1.0209078E-3,2.768379E-1,-1.08325735E-1,-7.102901E-2,2.4348116E-1,2.430196E-2,-2.0606522E-1],"categories":[],"categories_nodes":[],"categories_segments":[],"categories_sizes":[],"default_left":[0,0,0,0,0,0,0],"id":63,"left_children":[1,3,5,-1,-1,-1,-1],"loss_changes":[3.5710712E2,2.958864E2,4.0424948E2,0E0,0E0,0E0,0E0],"parents":[2147483647,0,0,1,1,2,2],"right_children":[2,4,6,-1,-1,-1,-1],"split_conditions":[-5.217607E-1,2.5818849E0,-1.0276501E0,-7.102901E-2,2.4348116E-1,2.430196E-2,-2.0606522E-1],"split_indices":[351,353,398,0,0,0,0],"split_type":[0,0,0,0,0,0,0],"sum_hessian":[1.18403545E4,3.3613928E3,8.478962E3,1.1228851E3,2.2385078E3,5.5910176E3,2.8879438E3],"tree_param":{"num_deleted":"0","num_feature":"626","num_nodes":"7","size_leaf_vector":"0"}},{"base_weights":[-8.7678025E-4,4.6353787E-2,-4.520202E-1,-1.4304349E-2,1.8252501E-1,-3.3118287E-1,1.16726175E-1],"categories":[],"categories_nodes":[],"categories_segments":[],"categories_sizes":[],"default_left":[0,0,0,0,0,0,0],"id":64,"left_children":[1,3,5,-1,-1,-1,-1],"loss_changes":[3.548174E2,3.601212E2,2.2755579E2,0E0,0E0,0E0,0E0],"parents":[2147483647,0,0,1,1,2,2],"right_children":[2,4,6,-1,-1,-1,-1],"split_conditions":[2.385496E0,-3.2151765E-1,2.2198844E0,-1.4304349E-2,1.8252501E-1,-3.3118287E-1,1.16726175E-1],"split_indices":[574,153,550,0,0,0,0],"split_type":[0,0,0,0,0,0,0],"sum_hessian":[1.665183E4,1.5073829E4,1.5780016E3,1.2203468E4,2.8703613E3,1.2074763E3,3.7052536E2],"tree_param":{"num_deleted":"0","num_feature":"626","num_nodes":"7","size_leaf_vector":"0"}},{"base_weights":[1.0994555E-2,1.24964386E-1,-1.3642032E-1,8.6707115E-2,-1.7374371E-1,-1.251228E-1,6.432557E-2],"categories":[],"categories_nodes":[],"categories_segments":[],"categories_sizes":[],"default_left":[0,0,0,0,0,0,0],"id":65,"left_children":[1,3,5,-1,-1,-1,-1],"loss_changes":[3.1663675E2,2.4330539E2,2.4794043E2,0E0,0E0,0E0,0E0],"parents":[2147483647,0,0,1,1,2,2],"right_children":[2,4,6,-1,-1,-1,-1],"split_conditions":[2.1287315E-2,8.815835E-2,-1.8147297E0,8.6707115E-2,-1.7374371E-1,-1.251228E-1,6.432557E-2],"split_indices":[310,617,544,0,0,0,0],"split_type":[0,0,0,0,0,0,0],"sum_hessian":[1.8846273E4,1.0628868E4,8.217406E3,9.640318E3,9.8854956E2,5.7488E3,2.4686067E3],"tree_param":{"num_deleted":"0","num_feature":"626","num_nodes":"7","size_leaf_vector":"0"}},{"base_weights":[6.0538044E-3,4.869254E-1,-1.0878872E-1,2.9850787E-1,-1.1698595E-1,-1.2880896E-1,1.7567444E-1],"categories":[],"categories_nodes":[],"categories_segments":[],"categories_sizes":[],"default_left":[0,0,0,0,0,0,0],"id":66,"left_children":[1,3,5,-1,-1,-1,-1],"loss_changes":[2.9794778E2,8.255989E1,2.982559E2,0E0,0E0,0E0,0E0],"parents":[2147483647,0,0,1,1,2,2],"right_children":[2,4,6,-1,-1,-1,-1],"split_conditions":[-2.1621745E0,2.8910565E0,4.2531357E0,2.9850787E-1,-1.1698595E-1,-1.2880896E-1,1.7567444E-1],"split_indices":[304,615,304,0,0,0,0],"split_type":[0,0,0,0,0,0,0],"sum_hessian":[5.395013E3,1.0399951E3,4.3550186E3,9.022301E2,1.3776501E2,3.2907014E3,1.0643169E3],"tree_param":{"num_deleted":"0","num_feature":"626","num_nodes":"7","size_leaf_vector":"0"}},{"base_weights":[-1.3957633E-1,-2.5190133E-1,2.6310572E-1,-2.6634598E-1,2.0535512E-1],"categories":[],"categories_nodes":[],"categories_segments":[],"categories_sizes":[],"default_left":[0,0,0,0,0],"id":67,"left_children":[1,-1,3,-1,-1],"loss_changes":[1.9177705E2,0E0,7.296918E1,0E0,0E0],"parents":[2147483647,0,0,2,2],"right_children":[2,-1,4,-1,-1],"split_conditions":[1.2593476E0,-2.5190133E-1,2.0165055E0,-2.6634598E-1,2.0535512E-1],"split_indices":[350,0,109,0,0],"split_type":[0,0,0,0,0],"sum_hessian":[1.3073739E3,6.864521E2,6.2092175E2,9.710848E1,5.238133E2],"tree_param":{"num_deleted":"0","num_feature":"626","num_nodes":"5","size_leaf_vector":"0"}},{"base_weights":[-2.5472166E-3,1.1702322E-1,-2.1949267E-1,1.43127E-1,-6.635431E-2,-1.7340493E-1,1.9046056E-1],"categories":[],"categories_nodes":[],"categories_segments":[],"categories_sizes":[],"default_left":[0,0,0,0,0,0,0],"id":68,"left_children":[1,3,5,-1,-1,-1,-1],"loss_changes":[2.9175443E2,3.064409E2,3.055046E2,0E0,0E0,0E0,0E0],"parents":[2147483647,0,0,1,1,2,2],"right_children":[2,4,6,-1,-1,-1,-1],"split_conditions":[-2.3346303E-2,1.4581708E0,6.381323E-1,1.43127E-1,-6.635431E-2,-1.7340493E-1,1.9046056E-1],"split_indices":[600,302,620,0,0,0,0],"split_type":[0,0,0,0,0,0,0],"sum_hessian":[1.1246966E4,7.250737E3,3.9962292E3,4.3219517E3,2.928785E3,3.29712E3,6.991091E2],"tree_param":{"num_deleted":"0","num_feature":"626","num_nodes":"7","size_leaf_vector":"0"}},{"base_weights":[-1.7987844E-3,-1.5252703E-1,1.2757468E-1,-2.2863156E-1,5.4995418E-2,9.377575E-2,-2.509494E-1],"categories":[],"categories_nodes":[],"categories_segments":[],"categories_sizes":[],"default_left":[0,0,0,0,0,0,0],"id":69,"left_children":[1,3,5,-1,-1,-1,-1],"loss_changes":[3.1142917E2,5.9011316E2,3.24468E2,0E0,0E0,0E0,0E0],"parents":[2147483647,0,0,1,1,2,2],"right_children":[2,4,6,-1,-1,-1,-1],"split_conditions":[-5.1776014E-2,7.844452E-2,3.9233658E0,-2.2863156E-1,5.4995418E-2,9.377575E-2,-2.509494E-1],"split_indices":[417,623,349,0,0,0,0],"split_type":[0,0,0,0,0,0,0],"sum_hessian":[1.5970333E4,7.376374E3,8.593959E3,3.4136572E3,3.962717E3,7.8464155E3,7.475436E2],"tree_param":{"num_deleted":"0","num_feature":"626","num_nodes":"7","size_leaf_vector":"0"}},{"base_weights":[1.1962122E-2,8.267605E-2,-2.0061323E-1,1.3198444E-1,-1.810299E-2,-1.4259702E-1,2.618929E-1],"categories":[],"categories_nodes":[],"categories_segments":[],"categories_sizes":[],"default_left":[0,0,0,0,0,0,0],"id":70,"left_children":[1,3,5,-1,-1,-1,-1],"loss_changes":[2.709169E2,2.914734E2,2.756553E2,0E0,0E0,0E0,0E0],"parents":[2147483647,0,0,1,1,2,2],"right_children":[2,4,6,-1,-1,-1,-1],"split_conditions":[6.099886E-1,7.5875485E-1,2.9344423E0,1.3198444E-1,-1.810299E-2,-1.4259702E-1,2.618929E-1],"split_indices":[395,588,84,0,0,0,0],"split_type":[0,0,0,0,0,0,0],"sum_hessian":[1.8022422E4,1.3523758E4,4.4986636E3,5.3559355E3,8.167822E3,4.0283716E3,4.702919E2],"tree_param":{"num_deleted":"0","num_feature":"626","num_nodes":"7","size_leaf_vector":"0"}},{"base_weights":[7.936686E-3,3.9267653E-1,-1.2787597E-1,2.7349782E-1,-6.925945E-2,2.0562299E-1,-1.4814794E-1],"categories":[],"categories_nodes":[],"categories_segments":[],"categories_sizes":[],"default_left":[0,0,0,0,0,0,0],"id":71,"left_children":[1,3,5,-1,-1,-1,-1],"loss_changes":[2.510127E2,1.0274716E2,3.2239502E2,0E0,0E0,0E0,0E0],"parents":[2147483647,0,0,1,1,2,2],"right_children":[2,4,6,-1,-1,-1,-1],"split_conditions":[-1.7675048E0,3.6297417E-1,-2.3403325E0,2.7349782E-1,-6.925945E-2,2.0562299E-1,-1.4814794E-1],"split_indices":[401,7,494,0,0,0,0],"split_type":[0,0,0,0,0,0,0],"sum_hessian":[4.803641E3,1.2532253E3,3.5504158E3,9.711041E2,2.821212E2,8.450898E2,2.705326E3],"tree_param":{"num_deleted":"0","num_feature":"626","num_nodes":"7","size_leaf_vector":"0"}},{"base_weights":[-1.2487058E-1,-2.5145411E-1,2.563375E-1,-2.3341973E-1,2.1291363E-1],"categories":[],"categories_nodes":[],"categories_segments":[],"categories_sizes":[],"default_left":[0,0,0,0,0],"id":72,"left_children":[1,-1,3,-1,-1],"loss_changes":[1.4927914E2,0E0,6.324081E1,0E0,0E0],"parents":[2147483647,0,0,2,2],"right_children":[2,-1,4,-1,-1],"split_conditions":[1.2593476E0,-2.5145411E-1,1.9425058E0,-2.3341973E-1,2.1291363E-1],"split_indices":[350,0,602,0,0],"split_type":[0,0,0,0,0],"sum_hessian":[1.0356727E3,5.199827E2,5.1569E2,9.788025E1,4.1780978E2],"tree_param":{"num_deleted":"0","num_feature":"626","num_nodes":"5","size_leaf_vector":"0"}},{"base_weights":[-5.9680194E-3,-6.0040906E-2,5.19261E-1,6.484706E-2,-1.0789096E-1,-1.8060191E-1,3.624055E-1],"categories":[],"categories_nodes":[],"categories_segments":[],"categories_sizes":[],"default_left":[0,0,0,0,0,0,0],"id":73,"left_children":[1,3,5,-1,-1,-1,-1],"loss_changes":[2.975658E2,2.8070682E2,1.7702039E2,0E0,0E0,0E0,0E0],"parents":[2147483647,0,0,1,1,2,2],"right_children":[2,4,6,-1,-1,-1,-1],"split_conditions":[1.2874506E0,5.371052E-4,-5.414816E-1,6.484706E-2,-1.0789096E-1,-1.8060191E-1,3.624055E-1],"split_indices":[347,351,159,0,0,0,0],"split_type":[0,0,0,0,0,0,0],"sum_hessian":[1.0477221E4,9.499342E3,9.778788E2,4.2823223E3,5.2170195E3,1.850688E2,7.9281E2],"tree_param":{"num_deleted":"0","num_feature":"626","num_nodes":"7","size_leaf_vector":"0"}},{"base_weights":[-4.081139E-3,2.9249625E-2,-5.804468E-1,2.5396302E-1,-7.510106E-3,2.7256548E-1,-3.0392343E-1],"categories":[],"categories_nodes":[],"categories_segments":[],"categories_sizes":[],"default_left":[0,0,0,0,0,0,0],"id":74,"left_children":[1,3,5,-1,-1,-1,-1],"loss_changes":[2.9112747E2,3.0358182E2,2.5583557E1,0E0,0E0,0E0,0E0],"parents":[2147483647,0,0,1,1,2,2],"right_children":[2,4,6,-1,-1,-1,-1],"split_conditions":[1.1685919E0,-4.9800798E-1,-1.0865812E1,2.5396302E-1,-7.510106E-3,2.7256548E-1,-3.0392343E-1],"split_indices":[69,119,263,0,0,0,0],"split_type":[0,0,0,0,0,0,0],"sum_hessian":[1.5154249E4,1.432589E4,8.283598E2,1.2126646E3,1.3113225E4,1.9640741E1,8.0871906E2],"tree_param":{"num_deleted":"0","num_feature":"626","num_nodes":"7","size_leaf_vector":"0"}},{"base_weights":[9.244895E-3,6.473914E-1,-1.30565325E-2,-4.4412577E-1,3.5005227E-1,3.7952468E-2,-8.755987E-2],"categories":[],"categories_nodes":[],"categories_segments":[],"categories_sizes":[],"default_left":[0,0,0,0,0,0,0],"id":75,"left_children":[1,3,5,-1,-1,-1,-1],"loss_changes":[2.498052E2,4.8041214E1,2.445232E2,0E0,0E0,0E0,0E0],"parents":[2147483647,0,0,1,1,2,2],"right_children":[2,4,6,-1,-1,-1,-1],"split_conditions":[-2.0590816E0,-3.0772126E0,1.5991503E-1,-4.4412577E-1,3.5005227E-1,3.7952468E-2,-8.755987E-2],"split_indices":[257,494,26,0,0,0,0],"split_type":[0,0,0,0,0,0,0],"sum_hessian":[1.7552725E4,5.9261035E2,1.6960113E4,1.961448E1,5.7299585E2,1.0949597E4,6.0105166E3],"tree_param":{"num_deleted":"0","num_feature":"626","num_nodes":"7","size_leaf_vector":"0"}},{"base_weights":[2.2983346E-3,-1.1802921E-1,3.9514652E-1,4.9554214E-2,-2.2331394E-1,6.853908E-1,1.6204019E-1],"categories":[],"categories_nodes":[],"categories_segments":[],"categories_sizes":[],"default_left":[0,0,0,0,0,0,0],"id":76,"left_children":[1,3,5,-1,-1,-1,-1],"loss_changes":[2.0611774E2,2.3817348E2,7.084387E1,0E0,0E0,0E0,0E0],"parents":[2147483647,0,0,1,1,2,2],"right_children":[2,4,6,-1,-1,-1,-1],"split_conditions":[5.4622135E0,5.921631E-1,7.003891E-2,4.9554214E-2,-2.2331394E-1,6.853908E-1,1.6204019E-1],"split_indices":[398,327,598,0,0,0,0],"split_type":[0,0,0,0,0,0,0],"sum_hessian":[4.360194E3,3.3378855E3,1.02230853E3,2.0098492E3,1.3280363E3,6.928583E1,9.530227E2],"tree_param":{"num_deleted":"0","num_feature":"626","num_nodes":"7","size_leaf_vector":"0"}},{"base_weights":[-9.608556E-2,-4.8079294E-1,2.8252378E-1,2.7666545E-1,-2.4883021E-1,-2.72451E-1,2.124298E-1],"categories":[],"categories_nodes":[],"categories_segments":[],"categories_sizes":[],"default_left":[0,0,0,0,0,0,0],"id":77,"left_children":[1,3,5,-1,-1,-1,-1],"loss_changes":[1.24906204E2,7.4468307E0,5.092661E1,0E0,0E0,0E0,0E0],"parents":[2147483647,0,0,1,1,2,2],"right_children":[2,4,6,-1,-1,-1,-1],"split_conditions":[3.7120984E0,-1.561134E1,-2.437921E0,2.7666545E-1,-2.4883021E-1,-2.72451E-1,2.124298E-1],"split_indices":[301,203,403,0,0,0,0],"split_type":[0,0,0,0,0,0,0],"sum_hessian":[8.57362E2,4.2524292E2,4.3211905E2,6.773731E0,4.184692E2,6.3382347E1,3.6873672E2],"tree_param":{"num_deleted":"0","num_feature":"626","num_nodes":"7","size_leaf_vector":"0"}},{"base_weights":[-6.52824E-3,8.3300576E-2,-2.601949E-1,9.583043E-2,-1.524416E-1,-1.8224011E-1,1.8617009E-1],"categories":[],"categories_nodes":[],"categories_segments":[],"categories_sizes":[],"default_left":[0,0,0,0,0,0,0],"id":78,"left_children":[1,3,5,-1,-1,-1,-1],"loss_changes":[2.3038087E2,3.1406943E2,1.7442293E2,0E0,0E0,0E0,0E0],"parents":[2147483647,0,0,1,1,2,2],"right_children":[2,4,6,-1,-1,-1,-1],"split_conditions":[5.0214925E0,-6.5291524E-1,9.411017E-2,9.583043E-2,-1.524416E-1,-1.8224011E-1,1.8617009E-1],"split_indices":[447,548,617,0,0,0,0],"split_type":[0,0,0,0,0,0,0],"sum_hessian":[1.0110183E4,7.4662793E3,2.643903E3,5.8369604E3,1.6293187E3,2.2697366E3,3.7416647E2],"tree_param":{"num_deleted":"0","num_feature":"626","num_nodes":"7","size_leaf_vector":"0"}},{"base_weights":[-1.6290103E-3,-9.855401E-2,1.8746808E-1,-9.9404275E-2,1.7155764E-1,-1.2021594E-1,1.8397346E-1],"categories":[],"categories_nodes":[],"categories_segments":[],"categories_sizes":[],"default_left":[0,0,0,0,0,0,0],"id":79,"left_children":[1,3,5,-1,-1,-1,-1],"loss_changes":[2.689429E2,4.2956888E2,3.8402032E2,0E0,0E0,0E0,0E0],"parents":[2147483647,0,0,1,1,2,2],"right_children":[2,4,6,-1,-1,-1,-1],"split_conditions":[-2.7972896E0,1.1729932E-1,1.0981405E0,-9.9404275E-2,1.7155764E-1,-1.2021594E-1,1.8397346E-1],"split_indices":[350,25,362,0,0,0,0],"split_type":[0,0,0,0,0,0,0],"sum_hessian":[1.4673491E4,9.701081E3,4.97241E3,7.9064507E3,1.7946307E3,1.4750824E3,3.4973276E3],"tree_param":{"num_deleted":"0","num_feature":"626","num_nodes":"7","size_leaf_vector":"0"}},{"base_weights":[1.068797E-2,-4.7286946E-2,2.5247163E-1,2.6820183E-1,-3.7406467E-2,1.796546E-1,-1.6661502E-1],"categories":[],"categories_nodes":[],"categories_segments":[],"categories_sizes":[],"default_left":[0,0,0,0,0,0,0],"id":80,"left_children":[1,3,5,-1,-1,-1,-1],"loss_changes":[2.4001346E2,2.2190027E2,2.072347E2,0E0,0E0,0E0,0E0],"parents":[2147483647,0,0,1,1,2,2],"right_children":[2,4,6,-1,-1,-1,-1],"split_conditions":[2.8204307E-1,-2.0603516E0,1.4676234E-1,2.6820183E-1,-3.7406467E-2,1.796546E-1,-1.6661502E-1],"split_indices":[16,258,373,0,0,0,0],"split_type":[0,0,0,0,0,0,0],"sum_hessian":[1.712237E4,1.3810876E4,3.3114932E3,6.218861E2,1.318899E4,2.800664E3,5.108291E2],"tree_param":{"num_deleted":"0","num_feature":"626","num_nodes":"7","size_leaf_vector":"0"}},{"base_weights":[-2.4141297E-4,-4.2496473E-1,9.976379E-2,2.5923923E-1,-2.4696839E-1,2.1752242E-2,4.6949127E-1],"categories":[],"categories_nodes":[],"categories_segments":[],"categories_sizes":[],"default_left":[0,0,0,0,0,0,0],"id":81,"left_children":[1,3,5,-1,-1,-1,-1],"loss_changes":[1.7376584E2,5.0761185E1,1.5633829E2,0E0,0E0,0E0,0E0],"parents":[2147483647,0,0,1,1,2,2],"right_children":[2,4,6,-1,-1,-1,-1],"split_conditions":[-7.477673E0,-3.6599872E0,8.384943E0,2.5923923E-1,-2.4696839E-1,2.1752242E-2,4.6949127E-1],"split_indices":[312,107,451,0,0,0,0],"split_type":[0,0,0,0,0,0,0],"sum_hessian":[4.090859E3,7.79593E2,3.3112659E3,5.3066353E1,7.265267E2,3.1033308E3,2.0793503E2],"tree_param":{"num_deleted":"0","num_feature":"626","num_nodes":"7","size_leaf_vector":"0"}},{"base_weights":[-8.9550294E-2,-4.7746584E-1,2.770684E-1,-2.5461134E-1,1.6279666E-1,-2.7056187E-1,2.3907219E-1],"categories":[],"categories_nodes":[],"categories_segments":[],"categories_sizes":[],"default_left":[0,0,0,0,0,0,0],"id":82,"left_children":[1,3,5,-1,-1,-1,-1],"loss_changes":[9.89354E1,8.63662E0,5.886853E1,0E0,0E0,0E0,0E0],"parents":[2147483647,0,0,1,1,2,2],"right_children":[2,4,6,-1,-1,-1,-1],"split_conditions":[3.1216943E0,1.436342E0,-1.4903716E0,-2.5461134E-1,1.6279666E-1,-2.7056187E-1,2.3907219E-1],"split_indices":[60,277,448,0,0,0,0],"split_type":[0,0,0,0,0,0,0],"sum_hessian":[6.9547156E2,3.379062E2,3.5756537E2,3.2508728E2,1.2818926E1,7.050529E1,2.870601E2],"tree_param":{"num_deleted":"0","num_feature":"626","num_nodes":"7","size_leaf_vector":"0"}},{"base_weights":[-1.0292697E-2,5.5142235E-2,-3.4445077E-1,1.0493326E-1,-5.4988038E-2,-1.8095288E-1,1.343639E0],"categories":[],"categories_nodes":[],"categories_segments":[],"categories_sizes":[],"default_left":[0,0,0,0,0,0,0],"id":83,"left_children":[1,3,5,-1,-1,-1,-1],"loss_changes":[2.1143687E2,2.0659157E2,8.389273E1,0E0,0E0,0E0,0E0],"parents":[2147483647,0,0,1,1,2,2],"right_children":[2,4,6,-1,-1,-1,-1],"split_conditions":[7.9667175E-1,1.0448793E0,2.5023913E-1,1.0493326E-1,-5.4988038E-2,-1.8095288E-1,1.343639E0],"split_indices":[550,305,373,0,0,0,0],"split_type":[0,0,0,0,0,0,0],"sum_hessian":[9.669649E3,8.0862764E3,1.5833735E3,4.174515E3,3.9117612E3,1.5743971E3,8.976425E0],"tree_param":{"num_deleted":"0","num_feature":"626","num_nodes":"7","size_leaf_vector":"0"}},{"base_weights":[-1.4295876E-3,-4.3053314E-2,4.2500326E-1,4.6926524E-2,-1.3859542E-1,-1.2814593E-1,3.1076968E-1],"categories":[],"categories_nodes":[],"categories_segments":[],"categories_sizes":[],"default_left":[0,0,0,0,0,0,0],"id":84,"left_children":[1,3,5,-1,-1,-1,-1],"loss_changes":[2.5080956E2,4.1266913E2,1.6827275E2,0E0,0E0,0E0,0E0],"parents":[2147483647,0,0,1,1,2,2],"right_children":[2,4,6,-1,-1,-1,-1],"split_conditions":[3.0559652E0,2.2750523E0,-7.935545E-1,4.6926524E-2,-1.3859542E-1,-1.2814593E-1,3.1076968E-1],"split_indices":[400,402,572,0,0,0,0],"split_type":[0,0,0,0,0,0,0],"sum_hessian":[1.4130131E4,1.2873637E4,1.2564943E3,8.123609E3,4.750028E3,2.813075E2,9.7518677E2],"tree_param":{"num_deleted":"0","num_feature":"626","num_nodes":"7","size_leaf_vector":"0"}},{"base_weights":[9.009254E-3,-2.5371683E-1,5.2669104E-2,-2.4041384E-1,2.6055604E-2,2.4457818E-3,1.9438763E-1],"categories":[],"categories_nodes":[],"categories_segments":[],"categories_sizes":[],"default_left":[0,0,0,0,0,0,0],"id":85,"left_children":[1,3,5,-1,-1,-1,-1],"loss_changes":[1.919034E2,1.6558942E2,2.3037268E2,0E0,0E0,0E0,0E0],"parents":[2147483647,0,0,1,1,2,2],"right_children":[2,4,6,-1,-1,-1,-1],"split_conditions":[3.4021243E-2,-5.096549E-1,1.1837149E0,-2.4041384E-1,2.6055604E-2,2.4457818E-3,1.9438763E-1],"split_indices":[315,450,502,0,0,0,0],"split_type":[0,0,0,0,0,0,0],"sum_hessian":[1.6729834E4,2.383925E3,1.434591E4,1.3679872E3,1.01593787E3,1.256053E4,1.7853798E3],"tree_param":{"num_deleted":"0","num_feature":"626","num_nodes":"7","size_leaf_vector":"0"}},{"base_weights":[5.7370216E-3,5.094906E-1,-7.3476925E-2,2.9137376E-1,-1.994322E-1,-1.2054705E-1,1.0864211E-1],"categories":[],"categories_nodes":[],"categories_segments":[],"categories_sizes":[],"default_left":[0,0,0,0,0,0,0],"id":86,"left_children":[1,3,5,-1,-1,-1,-1],"loss_changes":[1.5446715E2,3.5024017E1,1.6302708E2,0E0,0E0,0E0,0E0],"parents":[2147483647,0,0,1,1,2,2],"right_children":[2,4,6,-1,-1,-1,-1],"split_conditions":[-2.2415965E0,3.7880335E0,2.0472565E0,2.9137376E-1,-1.994322E-1,-1.2054705E-1,1.0864211E-1],"split_indices":[402,229,201,0,0,0,0],"split_type":[0,0,0,0,0,0,0],"sum_hessian":[3.8707454E3,5.2588513E2,3.34486E3,4.8667194E2,3.9213215E1,2.1217415E3,1.2231185E3],"tree_param":{"num_deleted":"0","num_feature":"626","num_nodes":"7","size_leaf_vector":"0"}},{"base_weights":[-8.1239305E-2,2.9512796E-1,-4.4975525E-1,2.2186275E-1,-1.9420816E-1,2.0300772E-2,-2.4744864E-1],"categories":[],"categories_nodes":[],"categories_segments":[],"categories_sizes":[],"default_left":[0,0,0,0,0,0,0],"id":87,"left_children":[1,3,5,-1,-1,-1,-1],"loss_changes":[7.869614E1,2.853082E1,6.347851E0,0E0,0E0,0E0,0E0],"parents":[2147483647,0,0,1,1,2,2],"right_children":[2,4,6,-1,-1,-1,-1],"split_conditions":[-2.5151167E0,-3.5940892E-1,-1.9102602E-1,2.2186275E-1,-1.9420816E-1,2.0300772E-2,-2.4744864E-1],"split_indices":[305,445,564,0,0,0,0],"split_type":[0,0,0,0,0,0,0],"sum_hessian":[5.67199E2,2.8062012E2,2.865789E2,2.3053792E2,5.008218E1,2.415917E1,2.624197E2],"tree_param":{"num_deleted":"0","num_feature":"626","num_nodes":"7","size_leaf_vector":"0"}},{"base_weights":[-8.741793E-3,3.1929922E-1,-6.932455E-2,2.3089308E-1,-8.349687E-2,-1.11458056E-1,6.2664166E-2],"categories":[],"categories_nodes":[],"categories_segments":[],"categories_sizes":[],"default_left":[0,0,0,0,0,0,0],"id":88,"left_children":[1,3,5,-1,-1,-1,-1],"loss_changes":[1.8702213E2,1.0165799E2,2.3749104E2,0E0,0E0,0E0,0E0],"parents":[2147483647,0,0,1,1,2,2],"right_children":[2,4,6,-1,-1,-1,-1],"split_conditions":[-3.087334E0,-9.620283E-2,2.370581E0,2.3089308E-1,-8.349687E-2,-1.11458056E-1,6.2664166E-2],"split_indices":[3,370,376,0,0,0,0],"split_type":[0,0,0,0,0,0,0],"sum_hessian":[9.410356E3,1.4669187E3,7.9434375E3,1.1345061E3,3.324125E2,4.4400137E3,3.5034233E3],"tree_param":{"num_deleted":"0","num_feature":"626","num_nodes":"7","size_leaf_vector":"0"}},{"base_weights":[-3.254444E-3,-7.257578E-2,2.3682778E-1,-6.412973E-2,1.7750004E-1,1.9131806E-1,-9.217325E-2],"categories":[],"categories_nodes":[],"categories_segments":[],"categories_sizes":[],"default_left":[0,0,0,0,0,0,0],"id":89,"left_children":[1,3,5,-1,-1,-1,-1],"loss_changes":[2.2797894E2,2.5307626E2,1.8848206E2,0E0,0E0,0E0,0E0],"parents":[2147483647,0,0,1,1,2,2],"right_children":[2,4,6,-1,-1,-1,-1],"split_conditions":[4.4973202E-2,9.620924E0,-1.7782552E0,-6.412973E-2,1.7750004E-1,1.9131806E-1,-9.217325E-2],"split_indices":[337,214,446,0,0,0,0],"split_type":[0,0,0,0,0,0,0],"sum_hessian":[1.3698134E4,1.0629145E4,3.068989E3,9.404461E3,1.2246837E3,2.2797578E3,7.892313E2],"tree_param":{"num_deleted":"0","num_feature":"626","num_nodes":"7","size_leaf_vector":"0"}},{"base_weights":[6.384896E-3,-5.161178E-1,2.8332323E-2,4.1593227E-1,-2.7513212E-1,2.5295442E-1,2.9827612E-3],"categories":[],"categories_nodes":[],"categories_segments":[],"categories_sizes":[],"default_left":[0,0,0,0,0,0,0],"id":90,"left_children":[1,3,5,-1,-1,-1,-1],"loss_changes":[1.8635634E2,3.0198547E1,1.6658954E2,0E0,0E0,0E0,0E0],"parents":[2147483647,0,0,1,1,2,2],"right_children":[2,4,6,-1,-1,-1,-1],"split_conditions":[-3.0235736E0,-4.6988125E0,-1.5506287E0,4.1593227E-1,-2.7513212E-1,2.5295442E-1,2.9827612E-3],"split_indices":[6,83,257,0,0,0,0],"split_type":[0,0,0,0,0,0,0],"sum_hessian":[1.6250471E4,6.549848E2,1.5595485E4,1.6124128E1,6.3886066E2,6.976245E2,1.4897861E4],"tree_param":{"num_deleted":"0","num_feature":"626","num_nodes":"7","size_leaf_vector":"0"}},{"base_weights":[4.962304E-3,-1.5256415E-1,2.5484076E-1,2.569552E-1,-1.310523E-1,3.1070083E-1,3.9243035E-2],"categories":[],"categories_nodes":[],"categories_segments":[],"categories_sizes":[],"default_left":[0,0,0,0,0,0,0],"id":91,"left_children":[1,3,5,-1,-1,-1,-1],"loss_changes":[1.4106657E2,1.6048676E2,8.957324E1,0E0,0E0,0E0,0E0],"parents":[2147483647,0,0,1,1,2,2],"right_children":[2,4,6,-1,-1,-1,-1],"split_conditions":[4.1913833E-2,-4.0060244E0,-2.8839965E0,2.569552E-1,-1.310523E-1,3.1070083E-1,3.9243035E-2],"split_indices":[9,10,106,0,0,0,0],"split_type":[0,0,0,0,0,0,0],"sum_hessian":[3.5835847E3,2.197986E3,1.3855986E3,3.102104E2,1.8877758E3,4.5000052E2,9.3559814E2],"tree_param":{"num_deleted":"0","num_feature":"626","num_nodes":"7","size_leaf_vector":"0"}},{"base_weights":[-5.7945818E-2,-2.5059357E-1,2.602897E-1,1.9640142E-1,-2.5037906E-1],"categories":[],"categories_nodes":[],"categories_segments":[],"categories_sizes":[],"default_left":[0,0,0,0,0],"id":92,"left_children":[1,-1,3,-1,-1],"loss_changes":[6.5381195E1,0E0,2.7230246E1,0E0,0E0],"parents":[2147483647,0,0,2,2],"right_children":[2,-1,4,-1,-1],"split_conditions":[1.2593476E0,-2.5059357E-1,1.367196E0,1.9640142E-1,-2.5037906E-1],"split_indices":[350,0,525,0,0],"split_type":[0,0,0,0,0],"sum_hessian":[4.633227E2,1.9360727E2,2.6971545E2,2.2975844E2,3.9957E1],"tree_param":{"num_deleted":"0","num_feature":"626","num_nodes":"5","size_leaf_vector":"0"}},{"base_weights":[-4.211642E-3,6.301017E-2,-2.772274E-1,8.401708E-2,-9.79477E-2,1.5026996E-1,-2.1150711E-1],"categories":[],"categories_nodes":[],"categories_segments":[],"categories_sizes":[],"default_left":[0,0,0,0,0,0,0],"id":93,"left_children":[1,3,5,-1,-1,-1,-1],"loss_changes":[1.6494188E2,1.9609929E2,1.4957846E2,0E0,0E0,0E0,0E0],"parents":[2147483647,0,0,1,1,2,2],"right_children":[2,4,6,-1,-1,-1,-1],"split_conditions":[-1.7464223E0,4.9661016E0,-5.2391453E0,8.401708E-2,-9.79477E-2,1.5026996E-1,-2.1150711E-1],"split_indices":[544,447,426,0,0,0,0],"split_type":[0,0,0,0,0,0,0],"sum_hessian":[8.987184E3,7.2116187E3,1.7755645E3,5.1304907E3,2.0811277E3,3.57732E2,1.4178325E3],"tree_param":{"num_deleted":"0","num_feature":"626","num_nodes":"7","size_leaf_vector":"0"}},{"base_weights":[-4.317471E-3,-1.4331438E-1,1.0667918E-1,5.682865E-2,-2.0464365E-1,9.3271285E-2,-1.5889886E-1],"categories":[],"categories_nodes":[],"categories_segments":[],"categories_sizes":[],"default_left":[0,0,0,0,0,0,0],"id":94,"left_children":[1,3,5,-1,-1,-1,-1],"loss_changes":[2.0310455E2,3.994969E2,2.48138E2,0E0,0E0,0E0,0E0],"parents":[2147483647,0,0,1,1,2,2],"right_children":[2,4,6,-1,-1,-1,-1],"split_conditions":[-2.1818871E0,-7.385348E-3,-9.355859E-3,5.682865E-2,-2.0464365E-1,9.3271285E-2,-1.5889886E-1],"split_indices":[524,172,477,0,0,0,0],"split_type":[0,0,0,0,0,0,0],"sum_hessian":[1.3164311E4,5.844915E3,7.319395E3,2.9727898E3,2.8721252E3,6.1604E3,1.1589951E3],"tree_param":{"num_deleted":"0","num_feature":"626","num_nodes":"7","size_leaf_vector":"0"}},{"base_weights":[5.5042133E-3,9.7841516E-2,-1.0965834E-1,-7.397448E-2,1.0006805E-1,1.5398463E-2,-1.5530145E-1],"categories":[],"categories_nodes":[],"categories_segments":[],"categories_sizes":[],"default_left":[0,0,0,0,0,0,0],"id":95,"left_children":[1,3,5,-1,-1,-1,-1],"loss_changes":[1.677892E2,2.2018738E2,1.9817618E2,0E0,0E0,0E0,0E0],"parents":[2147483647,0,0,1,1,2,2],"right_children":[2,4,6,-1,-1,-1,-1],"split_conditions":[5.9860444E-1,-1.8785542E0,5.6262624E-1,-7.397448E-2,1.0006805E-1,1.5398463E-2,-1.5530145E-1],"split_indices":[10,204,297,0,0,0,0],"split_type":[0,0,0,0,0,0,0],"sum_hessian":[1.5778656E4,8.757173E3,7.0214834E3,2.5735286E3,6.1836445E3,4.1328257E3,2.888658E3],"tree_param":{"num_deleted":"0","num_feature":"626","num_nodes":"7","size_leaf_vector":"0"}},{"base_weights":[8.114725E-3,-7.122251E-2,4.7679332E-1,-8.358598E-2,2.099886E-1,-9.218385E-3,3.010612E-1],"categories":[],"categories_nodes":[],"categories_segments":[],"categories_sizes":[],"default_left":[0,0,0,0,0,0,0],"id":96,"left_children":[1,3,5,-1,-1,-1,-1],"loss_changes":[1.2450008E2,1.3496587E2,3.0086807E1,0E0,0E0,0E0,0E0],"parents":[2147483647,0,0,1,1,2,2],"right_children":[2,4,6,-1,-1,-1,-1],"split_conditions":[3.7120984E0,4.6605744E0,-9.226038E0,-8.358598E-2,2.099886E-1,-9.218385E-3,3.010612E-1],"split_indices":[301,303,153,0,0,0,0],"split_type":[0,0,0,0,0,0,0],"sum_hessian":[3.3480552E3,2.8634238E3,4.846314E2,2.3955503E3,4.678735E2,9.789413E1,3.8673727E2],"tree_param":{"num_deleted":"0","num_feature":"626","num_nodes":"7","size_leaf_vector":"0"}},{"base_weights":[-7.344942E-2,-4.619319E-1,2.5116423E-1,-2.4546255E-1,2.1151118E-1,2.3184541E-1,-1.8662494E-1],"categories":[],"categories_nodes":[],"categories_segments":[],"categories_sizes":[],"default_left":[0,0,0,0,0,0,0],"id":97,"left_children":[1,3,5,-1,-1,-1,-1],"loss_changes":[4.774183E1,4.4423714E0,2.738896E1,0E0,0E0,0E0,0E0],"parents":[2147483647,0,0,1,1,2,2],"right_children":[2,4,6,-1,-1,-1,-1],"split_conditions":[2.881504E0,5.207537E-1,-1.6522472E0,-2.4546255E-1,2.1151118E-1,2.3184541E-1,-1.8662494E-1],"split_indices":[550,563,254,0,0,0,0],"split_type":[0,0,0,0,0,0,0],"sum_hessian":[3.7839075E2,1.7223073E2,2.0616002E2,1.6681017E2,5.4205704E0,1.5382846E2,5.2331554E1],"tree_param":{"num_deleted":"0","num_feature":"626","num_nodes":"7","size_leaf_vector":"0"}},{"base_weights":[-4.76656E-3,-8.431857E-2,2.3866922E-1,-1.2760492E-1,7.115158E-2,6.1896534E0,1.1605497E-1],"categories":[],"categories_nodes":[],"categories_segments":[],"categories_sizes":[],"default_left":[0,0,0,0,0,0,0],"id":98,"left_children":[1,3,5,-1,-1,-1,-1],"loss_changes":[1.6799152E2,2.53208E2,1.6985599E2,0E0,0E0,0E0,0E0],"parents":[2147483647,0,0,1,1,2,2],"right_children":[2,4,6,-1,-1,-1,-1],"split_conditions":[2.3735408E-1,2.6338756E0,-9.088917E0,-1.2760492E-1,7.115158E-2,6.1896534E0,1.1605497E-1],"split_indices":[599,376,12,0,0,0,0],"split_type":[0,0,0,0,0,0,0],"sum_hessian":[8.674442E3,6.537973E3,2.136469E3,3.7272844E3,2.810689E3,1.051801E0,2.1354172E3],"tree_param":{"num_deleted":"0","num_feature":"626","num_nodes":"7","size_leaf_vector":"0"}},{"base_weights":[-3.5545796E-3,-5.8658816E-2,2.700387E-1,1.057238E-2,-2.2474085E-1,-9.716967E-2,2.4163325E-1],"categories":[],"categories_nodes":[],"categories_segments":[],"categories_sizes":[],"default_left":[0,0,0,0,0,0,0],"id":99,"left_children":[1,3,5,-1,-1,-1,-1],"loss_changes":[1.90316E2,3.277157E2,2.0956003E2,0E0,0E0,0E0,0E0],"parents":[2147483647,0,0,1,1,2,2],"right_children":[2,4,6,-1,-1,-1,-1],"split_conditions":[1.0809891E0,1.7509727E-1,1.3500298E0,1.057238E-2,-2.2474085E-1,-9.716967E-2,2.4163325E-1],"split_indices":[208,598,156,0,0,0,0],"split_type":[0,0,0,0,0,0,0],"sum_hessian":[1.2623443E4,1.0507262E4,2.116182E3,8.725636E3,1.7816255E3,6.659192E2,1.4502627E3],"tree_param":{"num_deleted":"0","num_feature":"626","num_nodes":"7","size_leaf_vector":"0"}},{"base_weights":[6.3098487E-3,-4.298415E-1,3.0483581E-2,1.5570395E-1,-2.9095083E-1,9.989457E-2,-2.382487E-2],"categories":[],"categories_nodes":[],"categories_segments":[],"categories_sizes":[],"default_left":[0,0,0,0,0,0,0],"id":100,"left_children":[1,3,5,-1,-1,-1,-1],"loss_changes":[1.6141669E2,9.063864E1,1.9188853E2,0E0,0E0,0E0,0E0],"parents":[2147483647,0,0,1,1,2,2],"right_children":[2,4,6,-1,-1,-1,-1],"split_conditions":[-8.805273E0,-1.3912979E0,-3.2969367E-2,1.5570395E-1,-2.9095083E-1,9.989457E-2,-2.382487E-2],"split_indices":[349,182,319,0,0,0,0],"split_type":[0,0,0,0,0,0,0],"sum_hessian":[1.5309506E4,8.038826E2,1.4505623E4,1.3681999E2,6.670626E2,4.5803647E3,9.925258E3],"tree_param":{"num_deleted":"0","num_feature":"626","num_nodes":"7","size_leaf_vector":"0"}},{"base_weights":[1.2170275E-2,9.688438E-2,-4.028073E-1,-2.5810316E-2,2.1889848E-1,-2.3863184E-1,3.4970787E-1],"categories":[],"categories_nodes":[],"categories_segments":[],"categories_sizes":[],"default_left":[0,0,0,0,0,0,0],"id":101,"left_children":[1,3,5,-1,-1,-1,-1],"loss_changes":[1.0860792E2,1.2989531E2,4.3017372E1,0E0,0E0,0E0,0E0],"parents":[2147483647,0,0,1,1,2,2],"right_children":[2,4,6,-1,-1,-1,-1],"split_conditions":[8.575423E0,1.3003252E0,3.7120984E0,-2.5810316E-2,2.1889848E-1,-2.3863184E-1,3.4970787E-1],"split_indices":[508,595,301,0,0,0,0],"split_type":[0,0,0,0,0,0,0],"sum_hessian":[3.0892388E3,2.5655754E3,5.236635E2,1.7871565E3,7.784188E2,4.905809E2,3.308259E1],"tree_param":{"num_deleted":"0","num_feature":"626","num_nodes":"7","size_leaf_vector":"0"}},{"base_weights":[-5.4599147E-2,-4.6477765E-1,2.5023225E-1,-2.521289E-1,1.5499343E-1,2.2954878E-1,-1.9140452E-1],"categories":[],"categories_nodes":[],"categories_segments":[],"categories_sizes":[],"default_left":[0,0,0,0,0,0,0],"id":102,"left_children":[1,3,5,-1,-1,-1,-1],"loss_changes":[3.8199856E1,3.9995441E0,2.3192432E1,0E0,0E0,0E0,0E0],"parents":[2147483647,0,0,1,1,2,2],"right_children":[2,4,6,-1,-1,-1,-1],"split_conditions":[3.1216943E0,1.5519226E0,-7.87583E-1,-2.521289E-1,1.5499343E-1,2.2954878E-1,-1.9140452E-1],"split_indices":[60,277,107,0,0,0,0],"split_type":[0,0,0,0,0,0,0],"sum_hessian":[3.0531955E2,1.3014503E2,1.7517451E2,1.2386794E2,6.2771006E0,1.3173682E2,4.3437695E1],"tree_param":{"num_deleted":"0","num_feature":"626","num_nodes":"7","size_leaf_vector":"0"}},{"base_weights":[-6.918916E-3,4.2975858E-2,-3.5974085E-1,4.586039E-2,-2.1835275E-1,1.2743847E0,-1.9345729E-1],"categories":[],"categories_nodes":[],"categories_segments":[],"categories_sizes":[],"default_left":[0,0,0,0,0,0,0],"id":103,"left_children":[1,3,5,-1,-1,-1,-1],"loss_changes":[1.4576758E2,1.6962875E2,8.118085E1,0E0,0E0,0E0,0E0],"parents":[2147483647,0,0,1,1,2,2],"right_children":[2,4,6,-1,-1,-1,-1],"split_conditions":[1.5702623E0,6.528543E-1,-4.6157658E-1,4.586039E-2,-2.1835275E-1,1.2743847E0,-1.9345729E-1],"split_indices":[12,549,390,0,0,0,0],"split_type":[0,0,0,0,0,0,0],"sum_hessian":[8.280193E3,7.2543916E3,1.0258015E3,6.5852803E3,6.691112E2,9.40929E0,1.01639215E3],"tree_param":{"num_deleted":"0","num_feature":"626","num_nodes":"7","size_leaf_vector":"0"}},{"base_weights":[-4.961501E-3,-7.514838E-2,2.1082391E-1,5.6058023E-2,-1.08990945E-1,-3.087257E-1,1.5069124E-1],"categories":[],